svm_type c_svc
kernel_type linear
nr_class 7
total_sv 143
rho -0.244174 0.0286112 -0.63654 -0.317985 -0.619122 -0.656564 0.172646 -0.508932 -0.439607 -0.559625 -0.492077 -0.688783 -0.387977 -0.586306 -0.469992 0.298198 0.128617 -0.054452 -0.271531 -0.0200733 -0.201382
label 0 1 2 3 4 5 6
probA -2.89972 -2.05452 -2.49909 -1.03593 -2.4234 -3.03357 -2.50471 -3.28771 -2.24446 -3.05458 -3.38673 -3.11584 -2.31406 -2.58411 -3.29881 -2.73083 -2.72573 -3.23468 -1.87239 -2.05144 -2.63346
probB -0.0215082 0.000422961 -0.0503017 -0.129502 -0.472746 0.0534912 -0.200937 -0.231281 -0.527892 -0.18369 0.087612 -0.321749 0.0767549 -0.268518 0.238356 0.158495 -0.171586 0.111526 -0.212296 0.00349601 0.452009
nr_sv 20 35 27 12 10 12 27
SV
0 0.03925139470339055 0.02313648231672426 0 0 0 1:-0.28545526 2:-0.67190211 3:-1.0843101 4:-0.88656975 5:-1.1553031 6:-0.557799 7:-0.56428193 8:-0.27282651 9:0.56201246 10:0.627623 11:-0.83066589 12:-0.74273109 13:-1.2004175 14:0.14238725 15:0.44835579 16:0.44645151 17:0.64053667 18:-0.63808535 19:-0.91198756 20:0.37728278 21:1.65691 22:-0.21328616 23:1.4508073 24:-0.15888628 25:0.087438877 26:-0.24927542 27:-0.28163325 28:-0.37810093 29:-0.61370932 30:-0.51742566 31:-0.39148626 32:-0.59259487 33:-0.47028068 34:-0.68256798 35:-0.37787237 36:-0.28822685 37:0.24503018 38:-0.6244028 39:-0.40537946 40:-0.53797942 41:-0.55171766 42:-0.35714331 43:0.43668228 44:-0.96431488 45:-0.65064187 46:-0.8360912 47:0.032866524 48:0.64959241 49:0.7029597 50:-0.90169927 51:0.93574149 52:-0.012580983 53:0.10776711 54:-0.53314677 55:-0.15494104 56:0.25584546 57:0.832736 58:-0.1498581 59:-0.12678834 60:-0.31857128 61:-0.23676629 62:-0.41685867 63:-0.73387311 64:-0.55545213 65:-0.52514943 66:-0.69485911 67:-0.48024488 68:-0.61541488 
0 0.00576885078926141 0 0.1047552247620132 0.09237166981177987 0.004067009491296562 1:-0.28952318 2:-0.78941003 3:0.32298852 4:-0.28213695 5:-0.47610311 6:-0.22653745 7:-0.61721928 8:-0.23734289 9:-0.51374549 10:0.57783843 11:-0.082618455 12:-0.086528647 13:0.9217932 14:0.24168814 15:0.13298513 16:-0.48585877 17:0.57944579 18:-0.25444869 19:-0.53471061 20:-0.54875734 21:-1.3892391 22:0.30121229 23:1.6270084 24:0.038281271 25:0.80795312 26:0.94351319 27:-0.028394673 28:-0.20667703 29:-0.55754448 30:-0.42548606 31:-0.20119963 32:-0.34207565 33:-0.39880717 34:-0.30276475 35:-0.28872521 36:-0.5090337 37:-0.35829745 38:-0.5039714 39:-0.59915771 40:-0.23848832 41:-0.68763119 42:-0.15399564 43:-0.031258234 44:-0.61191592 45:-0.85493006 46:0.60177512 47:-0.17385819 48:-1.2851498 49:-0.38503107 50:-0.45736052 51:0.035699083 52:-0.37282812 53:-0.041197039 54:-0.107262 55:-0.38693243 56:0.067023438 57:1.0218381 58:0.020136375 59:0.2802346 60:0.9208933 61:-0.23170048 62:-0.28012437 63:-0.61809794 64:-0.53704589 65:-0.19742717 66:-0.61537754 67:-0.47481768 68:-0.22001556 
0 0.03094847202906698 0 0 0 0 1:-0.40049503 2:-0.66193486 3:-0.61710268 4:-0.70485319 5:-0.60736559 6:-0.50398347 7:-0.54368825 8:-0.35962334 9:0.61321928 10:0.70901704 11:-0.23669812 12:-0.18411342 13:0.7128068 14:0.24550723 15:0.53011643 16:-0.52213466 17:1.13912 18:-0.54781511 19:-0.29549698 20:0.54500871 21:-0.25116923 22:0.12899595 23:0.5425695 24:0.023854641 25:0.46369959 26:2.9931161 27:-0.11622166 28:-0.36773583 29:-0.6863073 30:-0.45113036 31:-0.3286035 32:-0.32404907 33:-0.15191135 34:0.34245399 35:-0.47007083 36:-0.35975288 37:-0.32117817 38:-0.69607317 39:-0.48814345 40:-0.70841889 41:-0.56512849 42:-0.49551622 43:-0.43154888 44:-1.1677828 45:-1.1556693 46:-0.16001009 47:-1.1430884 48:-1.0393013 49:0.03571368 50:-0.87851676 51:0.079744329 52:-0.18821758 53:-0.56312326 54:-0.95864021 55:0.16206269 56:0.0063556451 57:-0.12659545 58:-0.088136328 59:0.10686613 60:1.5004222 61:-0.35814704 62:-0.43340211 63:-0.78500052 64:-0.48041567 65:-0.33650369 66:-0.63177707 67:-0.3783314 68:-0.041437465 
0 0.00460990687700479 0.0314342023871109 0.01327783726040938 0 0.01350511765377451 1:-0.25906486 2:-0.39458531 3:-0.075869266 4:-0.57760204 5:-0.68357688 6:-0.29300469 7:-0.6172463 8:-0.20604954 9:1.1943216 10:0.67414516 11:-0.66039037 12:-0.56230525 13:-0.046265885 14:0.42193761 15:0.32529108 16:-0.93352818 17:1.1918746 18:0.62160383 19:0.11989917 20:-0.31774885 21:-0.82463914 22:-0.49054204 23:-0.26716356 24:-0.20679586 25:0.42679192 26:-0.20719975 27:-0.15857238 28:-0.41917509 29:-0.66144816 30:-0.42381475 31:-0.20207099 32:-0.0081967719 33:-0.4132649 34:-0.58776738 35:0.22645496 36:0.086815635 37:-0.51032137 38:-0.15164837 39:-0.068856152 40:0.096582874 41:-0.60583369 42:0.047519032 43:-0.13030628 44:0.019947826 45:-0.52481365 46:-0.42807383 47:-0.16332671 48:0.2907524 49:0.88927761 50:-1.3249996 51:0.046962742 52:1.5873522 53:0.96660076 54:1.0029888 55:1.0357973 56:-0.5042368 57:-0.19816034 58:0.29250293 59:0.46930581 60:-0.19187108 61:-0.1371746 62:-0.37474242 63:-0.72463739 64:-0.43184033 65:-0.094877209 66:0.12707569 67:-0.48490755 68:-0.56289797 
0.1436612314285011 0.1623055600733445 0.009290323481100574 0 0 0.001384976006936086 1:-0.23142752 2:-0.8183753 3:-0.20794609 4:-0.32301746 5:-0.31212103 6:-0.29151081 7:-0.42198051 8:-0.34120529 9:-0.93140767 10:0.76832935 11:-0.09705679 12:-0.39497972 13:0.66526073 14:0.11134221 15:0.0022552858 16:-0.40816733 17:1.0662991 18:0.005001784 19:0.13054334 20:1.3455704 21:1.161887 22:-0.063360765 23:-0.26087689 24:0.00035523419 25:0.80919493 26:1.4472456 27:0.14933125 28:-0.19775469 29:-0.62868935 30:-0.095486889 31:-0.36951631 32:-0.14411523 33:0.14009975 34:0.098259895 35:0.23280559 36:-0.65332151 37:-0.2978773 38:-0.059551254 39:-0.45702336 40:0.63132091 41:-0.280237 42:0.27191794 43:0.21244091 44:-0.02930981 45:-0.32153408 46:0.43274912 47:1.0946104 48:1.1108797 49:0.11206065 50:0.51989198 51:0.20485424 52:0.27411954 53:1.000817 54:0.088593978 55:0.48592078 56:0.60155419 57:-0.32857597 58:0.36263653 59:1.429501 60:0.91470179 61:0.068501244 62:-0.26981063 63:-0.72220093 64:0.21876393 65:-0.46801905 66:0.21283061 67:0.0054764124 68:-0.07899427 
0 0 0 0 0.07405011179293911 0 1:-0.40368395 2:-0.6913849 3:0.22872967 4:-0.68372136 5:-0.84741155 6:-0.47868383 7:-0.63825471 8:-0.36404718 9:0.018028461 10:0.65182916 11:-0.19730202 12:-0.14706604 13:0.23113803 14:0.24483384 15:0.27973278 16:-0.4157211 17:0.82749093 18:0.14172236 19:0.10105037 20:0.75651624 21:1.0596416 22:1.0494342 23:-0.28281783 24:0.033818313 25:0.79997102 26:2.5266642 27:-0.047298162 28:-0.36595154 29:-0.70457673 30:-0.36281975 31:-0.49568803 32:-0.59001169 33:-0.25985802 34:0.26654008 35:-0.37542472 36:-0.20396196 37:-0.39851318 38:-0.75448896 39:-0.90907927 40:-0.58023679 41:-0.7333575 42:-0.39877435 43:-0.086866092 44:-0.6039216 45:-0.3693361 46:-0.82990057 47:-0.59405894 48:-0.75816773 49:-0.36478645 50:-0.47547786 51:-1.1175329 52:-1.2176484 53:-0.96910069 54:-1.1149138 55:0.16878911 56:0.40855251 57:-0.47541008 58:-0.11030121 59:0.3150239 60:1.238341 61:-0.19225784 62:-0.39306629 63:-0.81827059 64:-0.47354282 65:-0.52110367 66:-0.75485027 67:-0.37892176 68:-0.1684826 
0.01346078096201493 0 0.00865680614621344 0.03962445597721272 0 0 1:5.0923866 2:-0.79130902 3:-0.58101788 4:4.3549195 5:0.52630124 6:4.7626614 7:-0.87615456 8:5.3521668 9:-0.5091397 10:-0.13472695 11:0.4088941 12:-0.46701164 13:0.18926655 14:-0.69944987 15:0.25939597 16:-0.078685549 17:0.33964052 18:0.47503881 19:0.91165634 20:0.91342743 21:1.7457307 22:-0.7489117 23:-0.67470647 24:-0.91870101 25:-0.61580928 26:-0.48054081 27:-0.52570576 28:-0.47568774 29:-0.75060672 30:-0.5376607 31:-0.55967521 32:-0.72315189 33:-0.53955758 34:-0.96575508 35:4.1199732 36:-0.69418701 37:0.46859411 38:-0.73282393 39:-1.0689353 40:0.8456932 41:-0.7910895 42:0.48173433 43:-0.28149587 44:-0.97343269 45:-1.033007 46:-1.5862642 47:-1.2091177 48:-0.72309669 49:-1.0937524 50:-0.11562634 51:-0.13186151 52:-0.88577511 53:-0.37585798 54:-0.71152999 55:-0.84951757 56:-0.7434392 57:-0.58707024 58:-0.78604206 59:-0.63600343 60:-0.40138874 61:-0.49397699 62:-0.41210089 63:-0.82941465 64:-0.55923586 65:-0.57563927 66:-0.76678658 67:-0.50178606 68:-0.78177289 
0 0 0 0 0 0.02141579469750515 1:-0.38940193 2:-0.40731342 3:-0.770447 4:-1.265138 5:-1.7726889 6:-0.71214183 7:-0.76027299 8:-0.15406657 9:1.3609258 10:0.63797786 11:-1.6897957 12:1.2605513 13:-0.70033942 14:0.17744641 15:-0.70915986 16:-0.2256606 17:0.93079298 18:-0.12451225 19:0.75556777 20:0.57352475 21:1.1020925 22:-0.41628498 23:0.2732262 24:-0.74601356 25:-0.35732804 26:-0.28475019 27:0.10380623 28:-0.1443306 29:-0.65187827 30:-0.3582412 31:-0.3992892 32:-0.40874182 33:-0.46016119 34:-0.82817115 35:-0.52727431 36:-0.47961071 37:-0.26049114 38:-0.79792659 39:-0.37900926 40:-0.87660219 41:-0.75544516 42:-0.51128695 43:-0.84836957 44:-0.99013489 45:-1.0536192 46:-1.0751022 47:-0.80826703 48:-1.2431966 49:-1.1579364 50:-1.0338226 51:-1.2987951 52:-1.2361839 53:-1.326826 54:-1.2194767 55:-1.2738208 56:-0.65609429 57:-0.26145876 58:-0.63552745 59:-0.5415216 60:-0.39274463 61:-0.14044988 62:-0.27837667 63:-0.69194965 64:-0.40451341 65:-0.5298389 66:-0.55047989 67:-0.44094892 68:-0.78783289 
0.02224889125388036 0.04026310419721009 0 0 0 0 1:-0.33890608 2:-0.15549365 3:-1.3482385 4:-1.153366 5:-1.1200843 6:-0.68686685 7:-0.72997915 8:-0.33050251 9:1.3812187 10:1.0226014 11:-1.3040553 12:0.27301288 13:0.66724934 14:-0.53720828 15:-0.34185475 16:-1.3101964 17:0.45136146 18:0.96885734 19:1.3741581 20:0.80597268 21:0.5024086 22:-0.38489003 23:0.084254681 24:-0.52794639 25:-0.28199758 26:-0.077647524 27:-0.03084069 28:0.47887532 29:-0.53468423 30:0.14030813 31:-0.26084954 32:-0.28382291 33:-0.20479337 34:-0.62674951 35:-0.53968543 36:-0.48674078 37:-0.63547798 38:-0.53851265 39:-0.24183598 40:-0.82235113 41:-0.66573467 42:-0.54467614 43:-1.0538003 44:-1.1023857 45:-0.96433993 46:0.094483298 47:-1.2951393 48:-0.61403342 49:-1.3748896 50:-1.7360751 51:-1.356487 52:-0.95937079 53:-0.86963538 54:-0.70026627 55:-0.83068408 56:-0.37484207 57:-0.36518554 58:-0.49111166 59:-0.59401097 60:-0.31840869 61:-0.35772332 62:-0.053595827 63:-0.47890842 64:-0.35246121 65:-0.34966577 66:-0.47310065 67:-0.39877952 68:-0.75252872 
0 0 0 0 0.02001574921343379 0.1000411481038222 1:0.34151593 2:-0.42943117 3:-0.3273857 4:-0.10622013 5:-0.81490138 6:0.47441117 7:-0.80299654 8:0.33718271 9:1.4635983 10:-0.19413757 11:-0.83136501 12:-0.40102454 13:0.011776691 14:-0.28116592 15:0.41683285 16:-1.0084616 17:0.044286445 18:-0.49724108 19:0.1896622 20:-0.70230966 21:-0.49164166 22:-0.66379894 23:-0.53633182 24:-0.64224463 25:-0.56555004 26:-0.47443627 27:-0.42414716 28:-0.41612217 29:-0.725602 30:-0.53179317 31:-0.48050535 32:-0.58359363 33:-0.53985767 34:-0.93151925 35:-0.086711032 36:0.13884055 37:-0.82703681 38:-0.61152542 39:-0.62942869 40:-0.47686586 41:-0.71617727 42:-0.5295461 43:0.14318957 44:-1.4256791 45:-1.2541301 46:-0.76099037 47:-0.60865356 48:0.032578327 49:0.87462477 50:-0.5590886 51:0.16029902 52:0.87665799 53:-1.0728288 54:0.86147232 55:-0.28536285 56:-0.67833919 57:-0.52332736 58:-0.40759413 59:-0.67023618 60:-0.45207423 61:-0.4019275 62:-0.45799331 63:-0.82326914 64:-0.57601809 65:-0.53200723 66:-0.53767612 67:-0.55169132 68:-0.76969866 
0 0 0 0.1200924622518856 0.06628597135191558 0.02666361771712416 1:0.67166502 2:-0.26307293 3:-0.48007962 4:0.53318903 5:-0.88272543 6:2.0733729 7:-0.88833081 8:1.3817164 9:1.5895029 10:-0.63303679 11:-0.29509062 12:-0.010106091 13:-0.053199055 14:-0.52856773 15:0.72728306 16:-0.73035701 17:-0.69587693 18:-0.22689871 19:0.89165503 20:0.49260265 21:-0.36717654 22:-0.71406446 23:-0.57109363 24:-0.88952843 25:-0.67653865 26:-0.28876684 27:-0.50934977 28:-0.49328621 29:-0.70903414 30:-0.59734001 31:-0.49770629 32:-0.72071214 33:-0.55079615 34:-0.92845921 35:0.041208371 36:-0.12603144 37:-0.019242812 38:-0.7108311 39:-1.015258 40:0.66525424 41:-0.78274051 42:-0.18853246 43:-0.79211701 44:-1.0953503 45:-1.2085923 46:-1.2460536 47:-1.2357886 48:-1.4712545 49:-1.4288111 50:-1.0861497 51:-1.4019154 52:-1.6673558 53:-1.5135908 54:-1.4780654 55:-1.0176114 56:-0.7802373 57:-0.54950428 58:-0.84624292 59:-0.72561418 60:-0.67326254 61:-0.44551029 62:-0.40328745 63:-0.84135819 64:-0.60805446 65:-0.63502791 66:-0.73620926 67:-0.58428812 68:-0.90135915 
0.06519522658592045 0.01972390614211299 0 0 0.05079754658226177 0.0002781217433435868 1:-0.19078917 2:-0.56278239 3:0.30032515 4:-0.2162464 5:-0.55257915 6:0.12047865 7:-0.69578904 8:0.015221438 9:1.0436535 10:0.12720096 11:-0.2652647 12:0.23006942 13:0.62477479 14:-0.032791514 15:-0.41859958 16:-0.30415211 17:0.13864496 18:0.24917565 19:0.96111612 20:0.78564291 21:-0.52629665 22:3.831323 23:-0.19695298 24:-0.0042513669 25:0.034672649 26:-0.4049961 27:-0.018270588 28:0.59194114 29:-0.29702596 30:0.12936752 31:0.098971946 32:-0.3757059 33:0.38023534 34:0.50765119 35:-0.063135128 36:-0.34403015 37:-0.48240511 38:-0.50962609 39:-0.72793768 40:0.93766029 41:-0.72503778 42:0.45034066 43:0.18086727 44:0.16222141 45:-0.7401723 46:-0.6300264 47:-0.84241356 48:-0.84859711 49:-0.30485802 50:-1.0011781 51:0.26524279 52:-0.86330194 53:-0.28151697 54:-0.58352616 55:-1.0729451 56:3.1929502 57:-0.4395449 58:0.10238636 59:-0.11335434 60:-0.42981854 61:0.018336498 62:0.75397135 63:-0.37682194 64:-0.042728311 65:0.24083693 66:-0.59273712 67:0.3287487 68:0.7712549 
0 0 0 0.01048282225974814 0 0 1:0.0092954051 2:-0.69394188 3:-0.17980891 4:-0.18552758 5:-0.59983419 6:0.12247893 7:-0.74101464 8:0.12200154 9:0.51210618 10:-0.11798943 11:-0.76456534 12:-0.0026405748 13:-0.19084531 14:0.8317662 15:0.40756267 16:-0.75027585 17:0.13626781 18:-0.1651563 19:0.26440351 20:-0.80948551 21:1.0439195 22:2.1892825 23:-0.14950335 24:3.6730664 25:0.40687185 26:-0.22294212 27:0.083305603 28:-0.24862194 29:-0.64935661 30:0.07608748 31:-0.49112285 32:-0.57539339 33:-0.27752931 34:0.4086588 35:-0.53678464 36:-0.27834824 37:-0.58143383 38:-0.81711451 39:-0.69402711 40:0.058228558 41:-0.75362052 42:-0.37058699 43:0.41644934 44:-1.257572 45:-0.15803089 46:-0.69567272 47:-1.5839612 48:-0.39201078 49:-0.53450896 50:-0.68003784 51:-0.97447057 52:-0.30416317 53:-0.14068162 54:-0.26702923 55:-0.17545978 56:1.1344105 57:-0.30904986 58:6.5590251 59:0.32405393 60:-0.44648354 61:0.55169719 62:-0.24013553 63:-0.74344193 64:0.26095736 65:-0.4870322 66:-0.78437965 67:-0.20967829 68:0.97256618 
0.03077807602473489 0.04773815461495722 0 0 0 0 1:-0.04358078 2:-0.58113292 3:-0.026109669 4:-0.21642669 5:-0.71442075 6:0.064340233 7:-0.73658975 8:0.062397848 9:0.66747991 10:0.071013647 11:-0.75220069 12:-0.12853871 13:0.0064024688 14:1.1316158 15:0.023156712 16:-0.67931304 17:0.051992536 18:-0.35860075 19:0.0028519169 20:-0.42226503 21:0.80060778 22:0.36083201 23:-0.34880244 24:2.0343469 25:-0.30513098 26:0.015688362 27:-0.24251657 28:-0.20471927 29:-0.61485788 30:-0.33471942 31:-0.12998012 32:-0.55645747 33:0.05611855 34:-0.14714196 35:0.022359914 36:0.02709817 37:0.09329173 38:-0.81473069 39:-0.44096342 40:0.012069687 41:-0.67815247 42:0.069967875 43:1.2770172 44:-0.034220577 45:0.24052474 46:-0.350715 47:-0.53073852 48:-0.5582759 49:-0.48037643 50:-1.502593 51:-0.68259445 52:0.030674832 53:-0.68924684 54:0.7099998 55:-0.7308992 56:0.25661821 57:-0.42615689 58:3.3885824 59:-0.53305395 60:0.19183874 61:-0.35961277 62:-0.22364813 63:-0.76951376 64:-0.38291176 65:0.046825308 66:-0.72856108 67:1.0144087 68:1.0639458 
0.05779220309512342 0.02386126843466411 0 0.03376953261052272 0 0 1:-0.1921247 2:-0.30763727 3:-0.87948342 4:-0.516821 5:-1.1284831 6:0.049459203 7:-0.74509634 8:0.1114316 9:1.6274101 10:0.27970747 11:0.13146206 12:1.1951561 13:0.85249231 14:0.7259785 15:-1.2438119 16:-1.2717624 17:-0.19337593 18:-0.93515852 19:-0.046885791 20:-0.1905139 21:0.2229131 22:0.099298355 23:-0.31286819 24:-0.097342154 25:-0.37875142 26:0.24235082 27:-0.030388495 28:-0.32970943 29:-0.66772303 30:0.17204793 31:0.28200178 32:-0.22465861 33:-0.27680976 34:-0.62041916 35:-0.46838949 36:-0.35968983 37:0.2239165 38:-0.78855676 39:-0.51454827 40:-0.2102411 41:-0.57889251 42:-0.36690483 43:-0.79197097 44:-1.2679489 45:-1.0801114 46:-0.92925606 47:-0.87729979 48:-1.5954458 49:-0.97367557 50:0.40046402 51:-0.39045067 52:-0.97950892 53:-0.59438536 54:-0.58556403 55:-1.2633572 56:0.15334377 57:-0.42347063 58:-0.3216631 59:-0.47908687 60:0.10118339 61:-0.098985945 62:-0.3950273 63:-0.70403537 64:-0.13051203 65:-0.083977205 66:-0.36642703 67:-0.16401317 68:-0.56628246 
0.0368615945339714 0.04648760025572131 0.02332183570538899 0.01602538957359282 0 0 1:-0.38422334 2:-0.15076036 3:-1.0816997 4:-0.98665426 5:-0.82651042 6:-0.67955287 7:-0.55093611 8:-0.47224562 9:0.74287156 10:1.1912606 11:-0.36150665 12:-0.46219759 13:1.402614 14:0.040307174 15:-0.19237669 16:-0.83389397 17:-0.25346875 18:-0.1651337 19:-1.2114334 20:-1.2753638 21:-0.41152985 22:-0.56129562 23:0.93457642 24:-0.70218343 25:-0.49993994 26:-0.3582915 27:-0.26192408 28:-0.071686298 29:0.15188283 30:4.0359671 31:0.12254038 32:-0.033881487 33:-0.4735834 34:0.3850709 35:1.0904121 36:1.0373332 37:-0.65942277 38:0.15179018 39:1.0688743 40:-0.79199184 41:-0.26978439 42:-0.55085948 43:0.87627918 44:-1.5581262 45:1.2066835 46:-0.82038796 47:-0.29318835 48:-1.122261 49:0.47217879 50:-0.32231904 51:-1.2187621 52:-1.2074349 53:0.34237855 54:-0.41818441 55:-0.58374006 56:-0.69117767 57:0.51134834 58:-0.70054317 59:-0.25402692 60:-0.10588042 61:-0.41337395 62:-0.44314888 63:2.0825899 64:0.74414448 65:0.14719375 66:0.53650714 67:-0.54339922 68:-0.38405138 
0.003798807556698766 0 0 0.0002097039265419881 0.0428790052598672 0 1:-0.083564988 2:-0.4561637 3:-0.036692089 4:-0.41886691 5:-0.55717382 6:-0.38522458 7:-0.71193061 8:-0.20249246 9:1.1074857 10:0.3851826 11:-1.3140348 12:-0.33680207 13:0.21005487 14:-0.20072356 15:1.5555764 16:0.84544565 17:1.3456586 18:0.77895372 19:-0.33958891 20:-1.3339479 21:1.2689083 22:-0.062000122 23:0.021994923 24:-0.0049066067 25:0.99229815 26:0.24625963 27:-0.27965044 28:-0.31047793 29:-0.69257291 30:-0.22658726 31:-0.2728402 32:-0.36440639 33:-0.1392113 34:-0.46387478 35:-0.17113037 36:-0.37542842 37:-0.43196111 38:-0.44012966 39:-0.56687668 40:-0.24088125 41:-0.65241802 42:-0.58307857 43:-0.99100143 44:-1.2687844 45:-0.50258682 46:-1.2391985 47:-0.68755621 48:-0.59932754 49:-1.4020601 50:-1.6533906 51:-1.2851644 52:-0.80751506 53:-1.3417916 54:-0.23695505 55:-0.40453449 56:-0.42478004 57:0.057818585 58:-0.036954274 59:0.35936687 60:-0.41055492 61:-0.29389488 62:-0.30380976 63:-0.8213539 64:-0.40627895 65:-0.28113636 66:-0.53301679 67:-0.33186949 68:-0.57320555 
0.0569469440090981 0.06070467998256514 0.0005672216020666265 0 0 0.006647984737970864 1:0.71682782 2:-0.71526068 3:-0.73652666 4:0.76658795 5:-0.23325802 6:1.7498954 7:-0.8277344 8:1.0252761 9:0.40670603 10:-0.67465948 11:-0.30949654 12:-0.99411682 13:-0.55067017 14:1.1418569 15:2.0269556 16:-0.12138709 17:-0.852021 18:-0.76954267 19:0.58902834 20:-0.41737013 21:0.07052784 22:-0.69947855 23:0.0079625427 24:-0.90197669 25:-0.65973539 26:-0.49306834 27:-0.33883028 28:-0.35568634 29:-0.66989296 30:-0.38850173 31:-0.49769452 32:-0.65197845 33:-0.49876958 34:-0.91581784 35:0.46016394 36:-0.40546659 37:0.69258457 38:-0.51663364 39:-0.66385355 40:1.7488548 41:-0.77739283 42:0.035202574 43:0.49665442 44:1.2907 45:-0.38632638 46:-0.61723555 47:-0.99773254 48:-1.1314213 49:-0.83346648 50:-0.7158075 51:-0.12265605 52:-0.62207034 53:-0.24746481 54:0.42088001 55:-0.087831787 56:-0.66379398 57:-0.1790345 58:-0.76780637 59:-0.66579078 60:-0.43002483 61:-0.21756282 62:-0.33757739 63:-0.77681635 64:-0.086607009 65:-0.45933137 66:-0.72066272 67:-0.41204098 68:-0.80890308 
0.003152738625569606 0.01588631703511699 0 0 0 0 1:-0.32582786 2:-0.44635275 3:-0.53433654 4:-0.53774851 5:-0.63124228 6:-0.35071004 7:-0.54098177 8:-0.3915358 9:0.90763961 10:0.468922 11:0.35863038 12:0.21689436 13:0.2718442 14:0.27801527 15:0.17012128 16:-0.63390376 17:-0.88791504 18:-0.39247355 19:0.62800669 20:0.32008651 21:0.15255299 22:4.8915546 23:0.37942428 24:4.531976 25:3.3428443 26:0.59291039 27:-0.15070868 28:0.1649428 29:-0.69589479 30:0.33952176 31:-0.31577695 32:-0.062760548 33:-0.094729367 34:1.070219 35:-0.20087466 36:-0.40500724 37:-0.37219239 38:-1.0188865 39:-1.0803068 40:-0.23713701 41:-0.65660509 42:0.047688558 43:-0.4511718 44:-0.64735028 45:-1.2899815 46:-1.6254946 47:-1.2312244 48:-0.60513889 49:-1.0442835 50:-0.725749 51:-1.7231986 52:-1.6318677 53:-0.78081285 54:-1.5136345 55:-0.23007493 56:1.6001477 57:-0.087026754 58:2.070478 59:0.15192865 60:-0.25580621 61:-0.43074169 62:-0.28365102 63:-0.81218236 64:-0.33963785 65:-0.36452672 66:-0.55830916 67:-0.32464502 68:-0.083152839 
0.01649427040697745 0.02470168975353235 0 0.04142038760432128 0 0 1:-0.3202268 2:-0.53665133 3:0.16491241 4:-0.45915301 5:-0.61482835 6:-0.23639767 7:-0.53825262 8:-0.31970743 9:0.67814082 10:0.41681633 11:0.23058663 12:-0.13195937 13:-0.003384049 14:-0.070386912 15:0.5861912 16:0.016331651 17:0.47408649 18:-0.0015584562 19:-0.23890581 20:-0.16638939 21:0.37364922 22:3.7463979 23:0.2248877 24:3.1014556 25:2.5027301 26:-0.065654213 27:-0.24510076 28:0.52852043 29:-0.59158616 30:0.21809378 31:-0.39223405 32:-0.14379462 33:-0.23233288 34:0.64692631 35:0.025840879 36:-0.05766156 37:-0.46101673 38:-0.66858633 39:-1.0912245 40:0.54784436 41:-0.65742136 42:0.45027202 43:0.099625409 44:-0.2867842 45:-1.0173324 46:-0.61888934 47:-1.0732134 48:0.064012843 49:-0.46063769 50:0.062700856 51:0.39890138 52:-0.23067919 53:-1.4849327 54:-1.4686394 55:0.54690885 56:3.4268554 57:0.15991688 58:4.6920445 59:1.6969306 60:-0.2865937 61:-0.33015953 62:0.57410197 63:-0.58617552 64:0.52508181 65:-0.4075751 66:0.27934195 67:-0.40265098 68:1.0025403 
-0.06277065267870376 0.04262507338303931 0 0 0 0 1:-0.41972125 2:-0.17053702 3:-0.58301197 4:-0.57131574 5:-0.74693734 6:-0.16158703 7:-0.054628252 8:-0.31482432 9:-0.25760046 10:0.14028197 11:-0.076620721 12:0.38406482 13:0.79621251 14:0.0018206325 15:-0.17217486 16:-0.60361401 17:0.5348197 18:-0.044783198 19:0.47840266 20:0.30452321 21:1.2010824 22:0.60416766 23:-0.57539082 24:-0.30848654 25:-0.0048741579 26:0.019040601 27:-0.41738198 28:0.9692286 29:-0.68269226 30:-0.056547979 31:-0.47533628 32:0.067452921 33:-0.14148214 34:-0.11495046 35:0.17494943 36:0.36662687 37:0.34027319 38:-0.2141762 39:-0.38611343 40:1.3589438 41:0.530409 42:0.86570938 43:0.5103852 44:0.1836148 45:-0.22893695 46:0.84820469 47:0.078099542 48:-0.65232952 49:-0.13748232 50:-0.87746612 51:-0.57671928 52:-0.65929527 53:-0.8608534 54:-0.71745264 55:0.1547783 56:1.3563356 57:-0.45309045 58:0.62880854 59:0.41396178 60:0.58852328 61:-0.43796178 62:1.2601835 63:-0.70729921 64:0.30410086 65:-0.44136187 66:-0.1083735 67:0.11611591 68:0.26857995 
-0.003466671148723199 0.005749845515697594 0 0.009702660709093249 0 0 1:-0.28719281 2:-0.59441183 3:0.026315606 4:-0.35939123 5:-0.7314916 6:-0.26476034 7:-0.64970296 8:-0.16156346 9:0.31607353 10:0.0027059722 11:-0.27818241 12:0.17700021 13:0.29858777 14:0.38081528 15:0.36096176 16:-1.2386159 17:0.34168927 18:0.66002668 19:0.52723432 20:0.61621212 21:1.0466609 22:-0.43662731 23:-0.30801945 24:-0.64488629 25:-0.06021913 26:-0.51938898 27:-0.38280009 28:1.9849375 29:-0.72028313 30:8.3819055 31:-0.31344763 32:0.074086789 33:-0.39464055 34:2.1159242 35:-0.35488575 36:-0.049800203 37:-0.39476781 38:-0.89936579 39:-1.0821253 40:-0.53525257 41:-0.70610539 42:-0.58007877 43:-0.13359851 44:-1.5731164 45:-0.93818661 46:-1.457413 47:-1.106453 48:-0.88722698 49:-1.2624111 50:-1.5991952 51:-0.81587279 52:-0.3877718 53:-0.64752407 54:-1.4880075 55:-1.3243941 56:-0.55259457 57:-0.47571393 58:-0.66370047 59:-0.4935661 60:-0.59624019 61:-0.51962194 62:1.1708591 63:-0.79260443 64:3.8589969 65:-0.61028674 66:-0.17517723 67:-0.33968472 68:0.46409589 
-0 0.01602024328798864 0 0.02610985234315487 0 0 1:-0.46571808 2:-0.62797652 3:-0.022772717 4:-0.36817952 5:-0.15596509 6:-0.48879939 7:-0.12944487 8:-0.60739235 9:-1.0619276 10:0.36693774 11:-0.030648753 12:0.19894977 13:0.40372135 14:-0.33653447 15:0.70467932 16:0.14224578 17:0.73304432 18:0.75524614 19:0.82257821 20:0.87451785 21:0.69982963 22:0.42043441 23:-0.60079069 24:-0.17321592 25:0.11488873 26:-0.025649064 27:-0.39264929 28:1.2811422 29:-0.68053692 30:1.8740782 31:-0.38500028 32:0.30381601 33:0.070490941 34:0.094968723 35:0.033337448 36:0.18944043 37:0.12477593 38:-0.29694332 39:-0.28463669 40:-0.06492141 41:-0.21756645 42:0.3497022 43:0.052841995 44:-0.88763046 45:-0.8802154 46:-0.80228923 47:-0.14676943 48:-0.30416807 49:-0.18634248 50:-0.90379263 51:-1.0593468 52:-0.27743158 53:-0.2656324 54:-0.47386946 55:-0.73313223 56:0.35251142 57:-0.47035725 58:0.68474521 59:0.35197841 60:-0.030705541 61:-0.21022647 62:1.1098279 63:-0.75503357 64:2.1523114 65:-0.25861369 66:-0.050476607 67:-0.18924081 68:-0.21280054 
-0.1046787731763615 0.02869340898211563 0 0.04287320083103217 0.07408519499715888 0.01856565309408597 1:-0.13262537 2:-0.75106331 3:0.28444415 4:-0.28490244 5:-0.60060257 6:-0.010543972 7:-0.64733152 8:0.073406803 9:0.19471544 10:-0.057490515 11:-0.0070861552 12:0.61591478 13:0.95477825 14:0.070911776 15:-0.1782509 16:-0.33627513 17:0.062803717 18:-0.041765875 19:0.63716838 20:0.71711681 21:1.3727805 22:0.524274 23:-0.48565567 24:-0.1557872 25:0.25449448 26:-0.28657535 27:0.014683737 28:0.8934949 29:-0.6774213 30:0.18686229 31:-0.32721137 32:-0.08135959 33:0.16019741 34:-0.16417912 35:-0.40751714 36:-0.47836498 37:-0.14321544 38:-0.55712601 39:-0.76641881 40:-0.17329848 41:-0.57703475 42:-0.24270134 43:-0.41814753 44:-0.97923445 45:-0.530356 46:-1.1196069 47:0.088900463 48:-1.1637589 49:-1.2189143 50:0.19724703 51:-1.3461357 52:-0.71231677 53:-1.0349844 54:-0.47513916 55:-1.700867 56:-0.023330109 57:-0.55130572 58:-0.16528553 59:-0.044104041 60:-0.40485076 61:-0.32367726 62:0.86679206 63:-0.82235464 64:0.20753624 65:-0.42196673 66:-0.27171442 67:-0.16117885 68:-0.35335009 
-0 0.002422002749855657 0 0.01725163035343615 0.01777224486428006 0 1:-0.79003443 2:-0.11209557 3:-0.43779432 4:-0.72150807 5:0.097668443 6:-0.68493534 7:0.66225973 8:-0.75189333 9:-0.70947608 10:0.60747607 11:0.37179012 12:0.46449761 13:0.7967355 14:0.40435356 15:-0.00056647341 16:0.058421904 17:0.8183135 18:0.40001509 19:0.84129174 20:0.30018459 21:0.23086413 22:1.8821061 23:-0.58799121 24:1.0241143 25:0.82192238 26:0.14444303 27:-0.17843415 28:1.9994074 29:-0.69826083 30:0.73573029 31:-0.28705283 32:0.28971113 33:0.14544012 34:0.28060565 35:-0.36876235 36:0.27205822 37:-0.1378284 38:-0.045365791 39:0.26252976 40:-0.81257342 41:-0.11612658 42:-0.64680601 43:-0.62428324 44:-1.2861997 45:-1.1029376 46:-1.0313168 47:-0.69385309 48:-1.209883 49:-0.79710708 50:-1.3936627 51:-0.90557699 52:-1.2353814 53:-0.9414972 54:-1.2881173 55:-1.5782431 56:1.376943 57:-0.52758505 58:0.18837731 59:-0.056969217 60:-0.10175073 61:-0.33480869 62:1.3185513 63:-0.78293911 64:-0.044099755 65:-0.34074162 66:-0.16421865 67:-0.25642619 68:-0.1504742 
-0.00939208258289064 0 0.01455466451376057 0.01931511566247796 0.01058953577322343 0.002086932866946245 1:0.65482434 2:-0.45669058 3:0.24201716 4:0.27382789 5:-0.98656321 6:1.0244768 7:-0.55059603 8:0.32241707 9:0.43764378 10:-0.53175674 11:0.86095288 12:-0.72774253 13:0.90798373 14:-0.15672545 15:0.81106748 16:-0.93298251 17:-0.026873278 18:0.62159126 19:0.76563571 20:-0.20388785 21:0.55664833 22:1.0597205 23:-0.47998748 24:-0.63595217 25:-0.4840612 26:-0.50031441 27:-0.47489872 28:1.0454696 29:-0.61798636 30:0.64080324 31:-0.064034405 32:1.253954 33:1.5923685 34:1.2189553 35:0.97911324 36:-0.28971282 37:-0.39199181 38:-0.24190565 39:-0.21357692 40:2.4270775 41:-0.38462446 42:1.5642089 43:-0.90842892 44:1.2370089 45:-0.38733473 46:1.4687232 47:1.1867697 48:1.0475186 49:1.2197855 50:0.6843334 51:0.9715121 52:0.94266662 53:0.15929 54:-0.69160297 55:0.36984324 56:2.4702336 57:-0.39722389 58:-0.20537603 59:-0.47517633 60:-0.42969901 61:-0.40632058 62:1.6879732 63:-0.64500272 64:0.81626897 65:0.13714541 66:2.2554837 67:3.8865964 68:2.7944074 
-0.05381406752621985 0 0.001753865098164953 0 0.0003562099934620759 0.01614824513884185 1:1.6359897 2:-0.80446443 3:-1.0687834 4:2.032254 5:0.25695228 6:3.4510133 7:-0.85636668 8:3.0340486 9:-0.146053 10:-0.72442095 11:1.1196801 12:0.36145485 13:0.70865631 14:1.3577391 15:0.20180005 16:0.56426628 17:-0.73172751 18:-0.60819236 19:0.29677415 20:0.0040749422 21:1.7999372 22:-0.43186156 23:-0.15892443 24:-0.75040435 25:-0.5095267 26:-0.36784203 27:-0.063357856 28:0.01748943 29:-0.55966548 30:-0.059936598 31:-0.36787292 32:-0.6010669 33:-0.50887501 34:-0.80463922 35:2.5426599 36:-0.79199605 37:0.1261956 38:-0.75692073 39:-1.0479617 40:1.6879726 41:-0.72771735 42:1.8314899 43:-0.18209925 44:-0.25130969 45:-0.17424139 46:-0.8014121 47:-0.54258131 48:0.13982682 49:-0.036490799 50:0.47721084 51:-0.85407284 52:0.59028515 53:-1.2655592 54:-0.38240958 55:-0.34512686 56:-0.46736734 57:-0.23028237 58:-0.61874279 59:-0.54319465 60:-0.13165888 61:0.27130572 62:0.44859572 63:-0.621195 64:0.23819096 65:-0.36788359 66:-0.45791357 67:-0.46269897 68:-0.33772522 
-0 0.0304530783757519 0 0.00769387145595313 0 0 1:0.57785003 2:-0.86531516 3:-2.6913041 4:1.2978503 5:-0.018366358 6:2.2421767 7:-0.82171562 8:1.2189219 9:-0.73966994 10:-0.72778892 11:1.2617185 12:1.2353363 13:0.45247484 14:0.84513272 15:-0.26695379 16:-0.062722247 17:0.9946013 18:-0.93577025 19:0.46802411 20:1.236398 21:0.81542199 22:-0.39820834 23:-0.19930209 24:-0.66407672 25:-0.48323822 26:-0.14084297 27:-0.060528544 28:0.29719095 29:-0.36967048 30:0.32390826 31:-0.32963135 32:-0.51304494 33:-0.4941191 34:-0.65807843 35:0.48588241 36:-0.81909663 37:0.043889708 38:-0.19582568 39:-0.87498091 40:2.7653002 41:-0.64238785 42:1.1867931 43:0.36961526 44:0.74574695 45:0.84200886 46:-0.34621406 47:1.624698 48:0.67599462 49:-0.13184425 50:2.4473678 51:0.54320034 52:0.12808894 53:-1.2146392 54:1.074769 55:0.22283567 56:-0.3257641 57:-0.16831892 58:-0.12029046 59:-0.20943815 60:0.79120538 61:0.67168149 62:0.91136791 63:-0.23757045 64:1.3275158 65:-0.44196548 66:-0.60502399 67:-0.35110355 68:0.078698089 
-0.01967516137138327 0.088625873916455 0 0.003667089483787805 0.0009784286865722853 0 1:-0.61900951 2:-0.34362365 3:-0.5728731 4:-0.59843383 5:0.68059238 6:-0.6098645 7:0.048291925 8:-0.63950758 9:-1.7488752 10:1.262106 11:1.5143462 12:0.64349966 13:0.99636193 14:0.83208933 15:0.59250467 16:-0.0040239493 17:0.09104607 18:-0.528046 19:-0.0534415 20:0.3075426 21:-0.35335065 22:0.36267055 23:0.96758211 24:0.863241 25:1.0583552 26:4.0122621 27:3.2406571 28:1.1219172 29:-0.26067907 30:0.14665171 31:0.8070337 32:0.35269719 33:-0.16643604 34:0.84234004 35:0.70082193 36:0.99002182 37:0.56352126 38:0.56705534 39:-0.28856533 40:0.20875502 41:-0.19767267 42:-0.048504268 43:1.7409329 44:0.50929874 45:-0.47910649 46:-0.74442493 47:0.28148724 48:-0.74738601 49:-0.69240713 50:0.89543706 51:-0.26873783 52:-0.69355324 53:-0.44089113 54:-0.37016247 55:-0.31848223 56:0.082787014 57:0.49620772 58:1.0327998 59:1.3532559 60:4.1617489 61:2.5133633 62:0.86343493 63:-0.17546233 64:0.29223759 65:0.69407965 66:0.16109391 67:-0.11906639 68:1.1299145 
-0 0 0.01253343633289476 0.01949771876357594 0.001908335973253589 0 1:0.015138553 2:0.018621273 3:-1.9067738 4:0.13906605 5:0.45925776 6:-0.36215008 7:-0.81534033 8:-0.64872198 9:0.90956369 10:0.48972338 11:1.5999456 12:1.3844119 13:0.78430596 14:0.61973067 15:-1.3950882 16:0.037338019 17:-1.5911982 18:-0.35652682 19:-0.56249121 20:-0.74809548 21:1.7334592 22:0.15420462 23:0.27734238 24:-0.3013295 25:0.21929077 26:0.5397803 27:2.743007 28:0.44523144 29:-0.53736421 30:0.33799812 31:2.3586392 32:1.7461998 33:0.85895539 34:0.34843836 35:2.0556771 36:0.010523591 37:-0.02231758 38:-1.0587472 39:-0.89295949 40:-0.74054767 41:-0.63040381 42:-0.66328815 43:-0.8404866 44:-1.2252328 45:-1.28562 46:-0.4816464 47:-1.6318093 48:-1.3780049 49:-1.8232461 50:0.99585614 51:-1.5885055 52:-1.7219694 53:-0.020835781 54:-0.98603916 55:-0.63042418 56:-0.70418784 57:-0.17351874 58:-0.70812597 59:-0.3579034 60:0.23900557 61:1.0873228 62:0.17091602 63:-0.50038991 64:0.4595407 65:1.5854913 66:0.37114132 67:-0.35820072 68:-0.78565095 
-0 0 0 0 0.002237037005472514 0 1:-0.54804759 2:-0.1339528 3:-0.886204 4:-0.75414296 5:-0.048479516 6:-0.35709364 7:0.17103826 8:-0.37953159 9:-1.2495472 10:1.1984466 11:1.4905413 12:0.62585712 13:1.0314952 14:1.0591746 15:0.2050397 16:-0.18198487 17:-0.16490402 18:-0.11325916 19:-0.019188138 20:0.20611573 21:0.10739647 22:0.36129569 23:1.176439 24:0.64031178 25:1.5025953 26:4.4332445 27:1.4795545 28:0.82158971 29:-0.3561434 30:0.32803602 31:0.67401991 32:0.53535128 33:-0.097529865 34:0.95243555 35:0.83959891 36:1.7142253 37:0.27589454 38:0.6726373 39:-0.45388318 40:3.0657752 41:-0.33742407 42:2.6238091 43:0.76739273 44:1.740898 45:-0.53801618 46:-0.77949046 47:-0.47596936 48:-0.96495278 49:-1.0679618 50:-0.54825531 51:-0.24928943 52:-0.82610187 53:-0.27528162 54:0.47269163 55:-0.46481769 56:0.6934986 57:1.1459719 58:0.94397437 59:1.2227041 60:2.479836 61:0.60742027 62:0.10473061 63:-0.19546286 64:0.024794076 65:-0.15371254 66:0.6250202 67:-0.010290576 68:0.3891166 
-0 0 0 0.002080077404209196 0.001165651797284704 0 1:-0.60141736 2:-0.25794165 3:-0.95171541 4:-0.89092549 5:0.1300243 6:-0.65039266 7:-0.16343552 8:-0.67544619 9:-1.5541215 10:1.3405635 11:1.6316308 12:0.62114664 13:1.072622 14:1.0582345 15:0.6435607 16:0.10834077 17:-0.092778011 18:-0.35850722 19:-0.24168811 20:0.081368952 21:-0.026472127 22:0.41081552 23:0.95022745 24:0.88820898 25:1.5580016 26:4.876672 27:1.1394184 28:0.89675315 29:-0.20991693 30:0.34627545 31:3.3792448 32:0.41295286 33:-0.14897172 34:1.0281377 35:0.81993038 36:1.0880074 37:0.56625146 38:0.059941792 39:-0.40515092 40:-0.17540293 41:-0.42447949 42:-0.51282046 43:0.80782657 44:-0.56563688 45:-1.0348199 46:-1.0681034 47:-0.71981914 48:-0.81527567 49:-1.4682705 50:-0.92038237 51:-0.91556079 52:-1.4242283 53:-1.2043618 54:-0.15984288 55:-1.577231 56:0.24826116 57:0.64454241 58:-0.32077174 59:1.5211015 60:2.0599256 61:0.57869841 62:0.17746609 63:-0.44643427 64:-0.2130154 65:1.0327909 66:0.27388055 67:-0.17646317 68:0.37062734 
-0 0 0 0.003097411847619655 0 0 1:-0.91810574 2:0.7144078 3:-0.69891162 4:-0.26923221 5:0.96580325 6:-0.64569602 7:3.9617941 8:-0.72415264 9:-1.3564784 10:0.30657657 11:0.60754128 12:0.57611908 13:0.9149 14:0.26632541 15:0.18678485 16:0.32225098 17:-0.18299926 18:-0.44862523 19:0.58987824 20:0.10093944 21:-0.070508336 22:-0.69718773 23:-0.66886689 24:0.37282391 25:-0.67847089 26:-0.61507015 27:-0.54212683 28:-0.48809097 29:0.20733967 30:-0.48039579 31:-0.56741898 32:2.3340529 33:-0.53777305 34:0.22865383 35:-0.47415516 36:4.0587883 37:1.9756394 38:0.13886048 39:0.5133211 40:-0.21466044 41:3.8186372 42:-0.042781977 43:2.1486571 44:0.73388064 45:-0.58429699 46:0.026719232 47:-0.25121957 48:-0.98013353 49:-1.1274302 50:-0.68988405 51:-0.51629033 52:-0.86081278 53:-0.7376437 54:-0.058022206 55:-1.0836367 56:-0.65153922 57:-0.49070872 58:0.21743686 59:-0.69505867 60:-0.63853889 61:-0.48397741 62:-0.38652375 63:0.51084323 64:-0.41753035 65:-0.53732441 66:1.5443632 67:-0.50900396 68:-0.075311529 
-0 0 0 0 0 0.009000565185754624 1:-0.9314556 2:0.33341879 3:-0.31189719 4:-0.79362535 5:-0.31787452 6:-0.64683598 7:0.89892085 8:-0.76747993 9:-0.77864742 10:0.19497905 11:1.0897985 12:-0.088927567 13:0.84932824 14:0.4142155 15:1.0080562 16:1.0374044 17:-0.21553573 18:0.23295557 19:0.39701822 20:1.1515344 21:0.54916027 22:-0.60711217 23:-0.49391512 24:-0.09630368 25:-0.67142113 26:-0.61188787 27:-0.45046543 28:-0.46279462 29:4.3681389 30:-0.48084783 31:-0.48172692 32:-0.42402966 33:-0.54175617 34:0.43600395 35:-0.4989941 36:2.413999 37:0.38448204 38:-0.49984008 39:0.27212998 40:-0.44637759 41:1.1106644 42:-0.52347948 43:1.0558112 44:1.2884131 45:-0.84373014 46:0.063301102 47:-0.66792733 48:0.18077486 49:0.96011411 50:-0.48362067 51:-0.31721257 52:-0.11157031 53:0.23639634 54:-0.15473621 55:-0.31921759 56:-0.39588874 57:-0.21712474 58:0.23164198 59:-0.66391728 60:-0.63831813 61:-0.34272552 62:-0.32085376 63:1.4666883 64:-0.3899764 65:-0.33363075 66:-0.29688072 67:-0.49877508 68:-0.18861242 
-0 0 0 0 0.02022471509259371 0 1:-0.83062706 2:-0.31918383 3:-0.15505554 4:-0.78823958 5:0.13353285 6:-0.66432787 7:0.091310207 8:-0.74001439 9:-1.2950062 10:0.75311948 11:0.71763309 12:0.14768403 13:0.91779423 14:0.5747301 15:-0.39542449 16:0.70314018 17:0.63104253 18:0.050303081 19:0.28918461 20:-0.78752284 21:-1.0387755 22:0.20783522 23:-0.52949935 24:0.52970546 25:-0.64926544 26:-0.34599734 27:-0.51763325 28:-0.17673172 29:0.49745645 30:-0.15614313 31:0.16793242 32:0.82166436 33:3.3118667 34:2.3934778 35:-0.3354322 36:0.46616912 37:-0.13161136 38:0.087020787 39:0.082938129 40:-0.48368995 41:-0.2216953 42:-0.61659498 43:-0.0028908208 44:-0.17417942 45:-1.1249286 46:-0.19959141 47:-0.48235087 48:-0.034728922 49:-0.71303148 50:-0.73560141 51:-0.91489771 52:-0.99685711 53:-0.62923656 54:-0.82422989 55:-0.68524296 56:-0.16264906 57:-0.44642668 58:0.010295136 59:-0.69827887 60:-0.52915455 61:-0.51372175 62:-0.18694184 63:0.098900558 64:-0.26571505 65:-0.31824881 66:0.46308033 67:1.6801236 68:1.2439306 
-0.0185632341166138 0 0 0 0 0 1:-0.79942053 2:-0.25556823 3:0.58449679 4:-1.148744 5:-1.0109878 6:-0.62656184 7:0.68684964 8:-0.76478422 9:-0.87591515 10:0.48530766 11:1.6347501 12:-0.36279731 13:0.51234706 14:0.98801558 15:0.015224222 16:-0.25886285 17:0.020428563 18:0.12898216 19:-0.40932313 20:0.68541058 21:-0.011654994 22:1.28532 23:-0.63457281 24:0.24141615 25:0.69871575 26:-0.54526112 27:-0.40192934 28:0.29989144 29:3.2742275 30:-0.36421361 31:-0.5942659 32:-0.11203183 33:-0.20096718 34:0.28057576 35:0.051854256 36:0.65314507 37:-0.50686014 38:0.32641359 39:-0.20285739 40:-0.21284574 41:1.1669617 42:-0.6604427 43:0.10121737 44:0.37670037 45:-0.4027287 46:-0.66002943 47:-0.50281797 48:1.2751667 49:0.088603053 50:0.044607866 51:0.056193179 52:-0.39535474 53:-0.72110199 54:0.39063934 55:-0.19096448 56:1.2003996 57:-0.55508911 58:0.76980542 59:1.299292 60:-0.47095702 61:-0.39787089 62:0.072971861 63:1.5006884 64:-0.34432752 65:-0.6079978 66:-0.26274022 67:-0.015112779 68:-0.51189177 
-0 0.03753334630678369 0 0 0.004587035041009496 0 1:-0.56353343 2:-0.43241177 3:0.084588726 4:-0.48297527 5:-0.20180163 6:-0.36807747 7:-0.11137164 8:-0.53160596 9:-0.40690616 10:0.54113793 11:1.1144466 12:-1.1740199 13:0.5304918 14:1.288536 15:0.46359062 16:0.81310765 17:0.6328443 18:-0.14795433 19:-0.34550586 20:0.83135863 21:-1.1195851 22:-0.16609507 23:-0.2124615 24:-0.27113493 25:-0.18679441 26:-0.34415315 27:-0.0260283 28:0.024668817 29:0.41221839 30:1.8854909 31:-0.027786759 32:0.65698915 33:3.0528888 34:2.2371077 35:-0.032244352 36:0.35053016 37:0.090464054 38:0.95593882 39:0.7379628 40:0.57109343 41:-0.34383779 42:0.46968257 43:0.058007574 44:-0.38024837 45:-0.78077856 46:-0.64394393 47:-1.0748254 48:-1.0284454 49:-1.201086 50:-1.4226388 51:-0.57668326 52:-0.67500621 53:-0.92427115 54:-0.50840243 55:0.2399019 56:-0.29208377 57:-0.18168846 58:-0.49376889 59:-0.37766423 60:-0.2003149 61:0.038095864 62:0.56245881 63:0.59564633 64:2.2361582 65:-0.24820742 66:1.2052791 67:2.3768829 68:1.8191382 
-0.03704432285214393 0.04869230158703253 0.006304703714238943 0.03687864643074367 0 0 1:-0.73631029 2:-0.54769811 3:0.50607224 4:-1.0150944 5:-0.80728472 6:-0.5467255 7:-0.33729883 8:-0.67952651 9:-0.092899657 10:0.67761497 11:1.1935657 12:0.25858081 13:0.72465072 14:0.27862762 15:-0.39343435 16:0.11380345 17:-0.36204673 18:0.10359348 19:0.73521716 20:-0.64713645 21:0.038288634 22:0.09092429 23:0.019992641 24:1.577004 25:0.0075551231 26:-0.28618689 27:-0.024337912 28:0.51186849 29:0.61327598 30:0.94724123 31:-0.10342468 32:0.27741161 33:1.0190798 34:0.61158888 35:-0.35174588 36:0.043359586 37:-0.66983971 38:-0.071749879 39:-0.48365976 40:0.0065180466 41:-0.30004472 42:-0.58649725 43:0.072513962 44:0.59246269 45:0.76705853 46:-0.74261033 47:-0.80596604 48:-0.21163614 49:-1.2291312 50:-0.5230094 51:1.6308487 52:1.1737739 53:0.91822723 54:0.68380853 55:0.8456079 56:0.2835449 57:-0.063944115 58:1.9777405 59:0.84705798 60:-0.39882686 61:0.062476779 62:1.0243505 63:0.19090422 64:1.3927147 65:-0.26070307 66:0.59180694 67:1.5663187 68:0.94530066 
-0 0 0.001025514470025522 0 0 0 1:-0.68834317 2:-0.53841886 3:-0.019058161 4:-0.56206128 5:-0.020694009 6:-0.62351569 7:-0.066581707 8:-0.73284716 9:-0.66230275 10:0.44968184 11:0.09679518 12:0.39799828 13:0.69860256 14:-0.10604153 15:0.19977202 16:-0.83247611 17:0.27101918 18:0.14349045 19:0.44236828 20:-0.072897202 21:1.1625749 22:0.00096584291 23:-0.61099836 24:-0.56977582 25:0.37040655 26:-0.53081278 27:-0.46528654 28:0.76307672 29:-0.65375628 30:8.5005927 31:-0.29920856 32:1.0796674 33:0.035712147 34:1.9724694 35:-0.34354453 36:0.49982657 37:0.23811423 38:-0.65642888 39:-0.50432234 40:-0.66803224 41:-0.39836648 42:-0.36919994 43:0.49831612 44:-0.78889286 45:-0.39213597 46:-0.2742286 47:-0.57927795 48:-0.54449238 49:-0.6774582 50:-0.39845369 51:-0.15542944 52:-0.35130014 53:0.42706258 54:-1.1521613 55:-0.88701042 56:0.2624852 57:-0.56593213 58:-0.56093994 59:0.30063361 60:-0.60775458 61:-0.51430831 62:0.90410757 63:-0.62398359 64:10.356699 65:-0.31700075 66:-0.24316254 67:0.30096516 68:3.6164612 
-0 0 0.00356395335733859 0 0 0 1:-0.8030596 2:1.9200728 3:-0.81243463 4:-0.33259223 5:0.114432 6:-0.23726441 7:3.7687908 8:-0.44242723 9:-0.54936281 10:-0.04588679 11:0.70591717 12:0.67626788 13:0.45688786 14:0.19045329 15:0.15901573 16:0.59361474 17:-0.023005433 18:-0.34035658 19:0.68454455 20:0.17695712 21:0.26175168 22:-0.6805801 23:-0.67499009 24:0.3525119 25:-0.6716412 26:-0.60633599 27:-0.53099024 28:-0.42129359 29:0.033830162 30:-0.49625429 31:-0.56821357 32:2.1093025 33:-0.53972476 34:0.12031384 35:-0.058869346 36:7.931312 37:1.653783 38:1.2879172 39:1.4181832 40:2.39804 41:6.142028 42:1.5461993 43:1.2282068 44:2.2620632 45:0.012852407 46:1.2145269 47:-0.71449464 48:-0.2969874 49:-0.96623576 50:0.53660307 51:-1.1096869 52:0.50579282 53:0.48805885 54:-0.46344564 55:-1.5161647 56:-0.59993778 57:-0.5369704 58:0.16925111 59:-0.64753857 60:-0.61139648 61:-0.44535103 62:-0.23549583 63:0.048723211 64:-0.38483324 65:-0.52972961 66:1.4334569 67:-0.49913455 68:0.026319055 
-0 0.03161334619141089 0 0.006191395041612925 0 0 1:-0.77707187 2:-0.60919005 3:-0.5085211 4:-0.0051200604 5:0.7633246 6:-0.26718171 7:1.4847157 8:-0.39765406 9:-2.1662169 10:0.12442386 11:1.1792127 12:0.82466706 13:0.4498255 14:0.71645373 15:-0.18717146 16:-0.19947572 17:-0.49336998 18:-0.57927387 19:-0.12471527 20:0.14739937 21:-0.28688726 22:-0.60498131 23:-0.5295674 24:0.5049561 25:-0.63978459 26:-0.57977735 27:-0.52053988 28:-0.32643203 29:0.21978696 30:-0.32199852 31:-0.28595423 32:1.5083488 33:-0.51537707 34:-0.033320759 35:-0.18274333 36:0.028809502 37:0.64424322 38:0.32661672 39:0.98720101 40:0.99650504 41:0.87965012 42:1.0526983 43:2.0075858 44:0.81017309 45:0.38422003 46:0.89545605 47:-0.19818718 48:-0.99247116 49:0.35541509 50:-0.54825562 51:0.11894699 52:0.026202194 53:-1.1523907 54:-0.43650367 55:0.66138474 56:-0.54275676 57:-0.3774853 58:0.26691412 59:-0.6082709 60:-0.58902615 61:-0.47171674 62:-0.071541277 63:0.59417556 64:0.0096600907 65:-0.007554668 66:0.64376511 67:-0.45374255 68:-0.44583796 
-0 0.07568623084247274 0 0 0 0.003261524654120512 1:-0.88981145 2:-0.76598548 3:-0.069169272 4:-0.4916647 5:0.18243896 6:-0.56144926 7:0.89064536 8:-0.71704885 9:-1.468771 10:0.26781901 11:1.105693 12:0.75470465 13:1.563311 14:0.61005113 15:-0.014108144 16:0.65343786 17:-0.19902868 18:-0.66637543 19:0.15619949 20:-0.66986925 21:-0.36031636 22:0.28915499 23:0.94648211 24:0.14779394 25:-0.4995477 26:-0.51054169 27:-0.38605546 28:-0.41058988 29:2.4066686 30:-0.1105004 31:0.60453555 32:0.058009761 33:-0.45603764 34:0.030829907 35:-0.41816387 36:-0.57400371 37:-0.15099626 38:-0.30426174 39:0.29343033 40:-0.4353596 41:0.83240179 42:-0.4941724 43:-0.21423686 44:0.78171259 45:-0.45384878 46:-0.038693735 47:-0.23403223 48:-0.67107349 49:-0.84358112 50:-0.14349988 51:-0.29795486 52:0.47968498 53:-0.078406674 54:0.078839267 55:1.7050704 56:0.20365616 57:0.49349141 58:-0.15530622 59:-0.63089803 60:-0.6039447 61:-0.3964824 62:-0.34798595 63:1.9747063 64:-0.31168528 65:0.25357377 66:0.10902282 67:-0.50291064 68:-0.33675855 
-0 0 0 0.009368045125333204 0 0 1:-0.77825852 2:0.15553476 3:-1.2128438 4:-0.54711612 5:-0.73314403 6:-0.42899592 7:0.78959973 8:-0.69349515 9:-0.37239626 10:0.058328024 11:1.1070898 12:-0.32993636 13:0.54783583 14:0.58025637 15:1.5502677 16:0.58461703 17:0.3667989 18:0.24787612 19:0.60472459 20:0.21519151 21:1.6957768 22:-0.28417925 23:0.90457902 24:0.31664509 25:-0.55357885 26:-0.44685069 27:-0.098279491 28:-0.25951003 29:0.79111678 30:-0.34563883 31:-0.56270153 32:1.5561947 33:-0.50781049 34:-0.056445543 35:-0.2148142 36:2.1243572 37:1.5037577 38:-0.19120257 39:0.12604287 40:0.54915457 41:1.0060066 42:0.13491561 43:0.68839668 44:0.82881907 45:-0.39711519 46:-0.99098782 47:-1.1076355 48:-0.70711392 49:1.3674829 50:0.55441358 51:0.52631903 52:-0.11672462 53:-0.22156122 54:-0.12977892 55:2.1757894 56:0.051066109 57:1.0464894 58:0.38829574 59:-0.42630714 60:-0.46919794 61:0.071812832 62:-0.13130502 63:0.089558935 64:-0.031776405 65:-0.53579949 66:1.0050597 67:-0.48286892 68:-0.28521365 
-0 0 0.006502528046225128 0 0 0 1:-0.89294866 2:-0.78751227 3:-0.79855704 4:-0.39127942 5:0.7105954 6:-0.48372544 7:6.3610141 8:-0.67776205 9:-2.5296089 10:0.63492312 11:1.041614 12:-0.13702243 13:0.65250402 14:0.63093913 15:1.2565266 16:0.42531774 17:0.18153816 18:-0.089233274 19:0.37734645 20:0.69259815 21:1.0062056 22:0.60645111 23:2.7162457 24:0.036399342 25:-0.60502287 26:-0.52868396 27:-0.48454777 28:-0.4057154 29:2.7865769 30:-0.40061534 31:-0.44322585 32:-0.0040013159 33:-0.39233671 34:0.31883782 35:-0.40085409 36:-0.50011713 37:0.24321722 38:0.10282286 39:0.54290218 40:0.23558123 41:4.6349708 42:-0.057302019 43:1.3805255 44:0.16790564 45:0.84978754 46:0.43048185 47:0.74899489 48:0.14352478 49:0.77966312 50:-0.87661569 51:0.2431501 52:0.72467566 53:-0.10588708 54:-0.61608451 55:-0.13079853 56:2.0597796 57:5.4645725 58:0.22133315 59:-0.60479272 60:-0.48050279 61:-0.36726714 62:-0.34653404 63:1.8480119 64:-0.40068816 65:-0.32309523 66:0.13415621 67:-0.21517145 68:0.063817278 
-0.01858675816933139 0.03946092771955032 0.01705802126138913 0 0 0 1:-0.71714583 2:-0.82114896 3:-0.74107956 4:-0.092340683 5:0.47096603 6:-0.08911117 7:0.23998718 8:-0.10717987 9:-1.8302957 10:0.37483104 11:0.47712333 12:-0.5519061 13:0.19338484 14:0.67545863 15:1.9922306 16:0.53137922 17:-0.40670221 18:0.19971119 19:0.99341889 20:0.29383542 21:1.5314887 22:-0.011717418 23:2.3231185 24:0.24480995 25:-0.51044376 26:-0.46521215 27:-0.20410392 28:-0.38761278 29:0.71703663 30:-0.34154459 31:-0.4568854 32:1.1885841 33:-0.47091498 34:-0.10992925 35:-0.14890994 36:-0.69687415 37:0.77498824 38:0.40274624 39:0.53411171 40:2.5114953 41:0.60666855 42:2.7959987 43:2.1948757 44:2.1363097 45:0.5328697 46:-0.013065716 47:0.15995082 48:-0.11690585 49:3.5114785 50:0.041009441 51:0.7444833 52:0.24002362 53:1.1982795 54:1.7183047 55:0.94668192 56:0.22315773 57:3.8084921 58:0.072337704 59:-0.33387727 60:-0.42258203 61:-0.053223117 62:-0.19562538 63:0.64137332 64:-0.036368446 65:-0.4079081 66:0.87821684 67:-0.43467023 68:-0.15025045 
-0 0 0 0.0240776077716225 0 0 1:-0.7168195 2:-0.35400086 3:-0.4682221 4:-0.013182891 5:0.15894668 6:-0.0074220699 7:4.8907678 8:-0.16459833 9:-1.7900232 10:-0.061978647 11:1.2348672 12:-0.10286419 13:1.0201626 14:1.3889857 15:-0.074760051 16:-0.0043815482 17:0.62032695 18:-0.39793144 19:-0.26214915 20:0.79639359 21:-0.026274311 22:-0.56602375 23:-0.66106052 24:1.1369707 25:-0.54200029 26:-0.53742378 27:-0.44493129 28:-0.40634828 29:0.72536308 30:-0.46353196 31:-0.5718236 32:0.81483158 33:-0.35325219 34:-0.11846156 35:-0.11287221 36:0.46377805 37:0.36276229 38:0.282493 39:-0.25693885 40:0.70160736 41:1.9649737 42:0.46297443 43:0.19220455 44:0.20986422 45:0.95959562 46:1.2741033 47:-0.4220676 48:-0.56856557 49:-0.13503596 50:-0.48538298 51:-0.098433927 52:-1.108213 53:-1.0177226 54:-0.81790762 55:-1.3158502 56:-0.63239507 57:-0.5728803 58:0.44209099 59:-0.45766577 60:-0.49175056 61:-0.34882373 62:-0.37524025 63:0.42448603 64:-0.5178877 65:-0.59531321 66:-0.17344597 67:-0.48386319 68:-0.64099342 
-0.02654645736337506 0 0.01996802565233147 0.01146240422475368 0.007341654390477643 0 1:-0.013459816 2:-0.86897546 3:-0.029322882 4:-0.36347159 5:-0.36577394 6:0.64945098 7:-0.73143525 8:0.48420823 9:-0.62525866 10:0.33388497 11:0.799442 12:-0.41526136 13:0.84196989 14:0.38031166 15:-0.12328481 16:0.35513495 17:-0.46284134 18:-0.89824142 19:0.5914707 20:0.002333678 21:-0.58513491 22:-0.51653423 23:0.60877015 24:-0.68128657 25:-0.33948427 26:-0.10425005 27:-0.14102443 28:-0.33045394 29:-0.1822497 30:-0.37628284 31:5.5017118 32:-0.20117385 33:-0.4876984 34:-0.17304653 35:0.13004547 36:-0.83589106 37:0.71055213 38:-0.4118332 39:-0.36891628 40:2.5174907 41:-0.77652883 42:1.5517379 43:0.070291484 44:0.058965198 45:-0.95665233 46:-0.52196496 47:-0.070987615 48:-1.1918216 49:-1.2861074 50:-1.2248044 51:-0.14394666 52:-1.3468804 53:-0.54641995 54:-1.01454 55:-0.80794421 56:-0.47408135 57:0.42180281 58:-0.71434591 59:-0.59423893 60:-0.094855397 61:-0.1827007 62:-0.31337262 63:-0.22097856 64:-0.50374161 65:2.8765641 66:-0.26006177 67:-0.53147957 68:-0.30646525 
-0.0123401880210101 0.0502445723693918 0 0 0 0 1:-0.63227038 2:-0.40247755 3:0.20702697 4:-0.95980192 5:-0.52995015 6:-0.5972106 7:-0.22107761 8:-0.65603714 9:-0.90962607 10:0.79393119 11:1.2035551 12:-0.74972684 13:-0.24904699 14:0.68376493 15:-0.35788984 16:0.33354119 17:-0.28952792 18:-0.32245295 19:0.19214232 20:0.79495234 21:-0.10255917 22:0.050984313 23:-0.41642914 24:-0.17631727 25:0.026166211 26:0.063885385 27:-0.21858989 28:-0.058835316 29:0.23040618 30:1.3998857 31:-0.027438357 32:0.66038734 33:2.7174947 34:1.881633 35:-0.21334513 36:0.40302775 37:-0.13304544 38:-0.1783151 39:0.016862536 40:-0.47865691 41:-0.45667877 42:-0.54452554 43:0.03693339 44:-0.35851148 45:-0.85528941 46:-1.1222533 47:0.0033432403 48:-0.93339373 49:0.17531009 50:-1.1152103 51:-0.04087566 52:-0.97049256 53:-1.2259587 54:-0.66432329 55:-1.3053684 56:0.27736979 57:-0.4163127 58:-0.21125224 59:0.0031574285 60:0.19287583 61:-0.21998279 62:0.28592982 63:0.4389692 64:1.9530695 65:-0.16917668 66:0.69690201 67:1.6789066 68:1.2328859 
-0 0 0 0.04688736619976831 0 0 1:-0.59225046 2:-0.49737075 3:-0.85674307 4:-0.64667908 5:-0.41897595 6:-0.48862822 7:0.10197656 8:-0.76179444 9:-0.91599294 10:-0.042102313 11:1.8966357 12:0.44993975 13:0.85057331 14:0.35471507 15:0.30716883 16:0.57270425 17:-0.15026186 18:-0.55450519 19:-0.35086598 20:0.88848071 21:-0.22127985 22:-0.095507155 23:-0.65590125 24:0.70673333 25:1.9063317 26:-0.38524673 27:-0.47240399 28:0.11995625 29:2.239554 30:-0.49131305 31:-0.44240361 32:0.18146289 33:-0.44317447 34:0.062174908 35:0.23494674 36:-0.26157429 37:0.10415729 38:-0.20015973 39:-0.64474442 40:-0.026524037 41:0.0078542582 42:-0.63873443 43:-0.065102324 44:-0.94323892 45:-0.6937027 46:-0.82944457 47:-1.2114409 48:-1.317283 49:-1.2210804 50:-0.58866983 51:-0.71327593 52:-0.94312289 53:-1.0059479 54:-1.0572307 55:-0.038611253 56:0.47269713 57:-0.5717797 58:0.31839265 59:0.46394159 60:-0.32971388 61:-0.45389081 62:0.21726225 63:0.32949477 64:-0.43213064 65:-0.3546914 66:0.16040238 67:-0.40917422 68:-0.67217325 
-0 0 0 0 0.01517475597728729 0 1:-0.82026609 2:-0.057481696 3:0.38077358 4:-0.82868172 5:-0.10284499 6:-0.67311179 7:0.19277918 8:-0.76728387 9:-0.68521759 10:0.30593633 11:1.5805426 12:-0.032069307 13:1.218987 14:0.74429151 15:-0.088377206 16:0.03385596 17:-0.091729348 18:-0.15511243 19:-0.58224597 20:0.72322479 21:-0.22372994 22:0.89887117 23:-0.69315102 24:0.18116037 25:1.2368717 26:-0.58802264 27:-0.43895853 28:0.070903586 29:3.5185205 30:-0.51162187 31:-0.59602391 32:-0.18774954 33:-0.31033342 34:0.29842668 35:-0.042536013 36:0.38379969 37:-0.28722394 38:-0.4755698 39:-0.39400976 40:-0.71106603 41:0.20262483 42:-0.66070605 43:-0.35632016 44:-1.1166554 45:-0.65448756 46:-1.0407463 47:-1.3800954 48:-1.6762376 49:-1.2629802 50:-0.90727008 51:-1.3510877 52:-0.94453255 53:-0.8421237 54:-0.34556182 55:-0.38118845 56:0.73988002 57:-0.58304183 58:0.51198387 59:0.85125124 60:-0.5697044 61:-0.31506852 62:0.23516108 63:1.1134277 64:-0.44267182 65:-0.59774631 66:-0.088686614 67:-0.28307085 68:-0.42442792 
-0 0 0 0 0 0.00611841425652145 1:-0.42434382 2:-0.56751447 3:0.27783461 4:-0.52163219 5:-0.54086446 6:-0.34037476 7:-0.097639009 8:-0.41402648 9:-0.67333209 10:0.26763125 11:-0.11473046 12:0.12413264 13:0.093748907 14:-0.19164557 15:0.35281161 16:-0.23166564 17:0.95448713 18:1.182288 19:0.55183033 20:0.23894159 21:1.225141 22:0.45605769 23:-0.59614679 24:-0.14631377 25:0.52247704 26:-0.13540117 27:-0.33296125 28:1.7334091 29:-0.65431796 30:-0.067386335 31:-0.26501299 32:0.33487903 33:-0.1926055 34:-0.016366628 35:0.10886186 36:0.27336156 37:-0.42904801 38:-0.33949364 39:-0.38158023 40:0.47525306 41:-0.11244228 42:0.31833299 43:-0.12674496 44:0.01478617 45:-0.57847744 46:-0.78322027 47:-0.09552873 48:0.85993933 49:-1.0826688 50:0.16921072 51:-0.084994689 52:0.20745844 53:-0.64086454 54:-0.53324002 55:-0.28514537 56:0.31850711 57:-0.52487063 58:-0.051907706 59:0.79143865 60:-0.079987795 61:-0.27837251 62:2.2001048 63:-0.71561196 64:-0.14782258 65:-0.05892101 66:-0.22614977 67:0.20931762 68:0.49741348 
-0 0 0 0.01010909702536966 0.01663333103432649 0 1:-0.84729214 2:-0.553366 3:0.080272295 4:-0.42237178 5:1.4306449 6:-0.71288021 7:0.83634808 8:-0.7708373 9:-1.9694477 10:0.62210827 11:1.11747 12:0.19802614 13:0.84669387 14:0.51233405 15:-0.18990541 16:0.31207666 17:-0.15405635 18:-0.47053396 19:-0.19237261 20:0.3339911 21:-0.017637708 22:-0.71201499 23:-0.70317437 24:-0.34403845 25:2.1792597 26:-0.51649644 27:-0.43147839 28:-0.053258765 29:-0.46736759 30:-0.19770631 31:-0.50174361 32:-0.3617944 33:-0.5120487 34:-0.11527713 35:-0.55112918 36:0.12375373 37:-0.14725778 38:-0.68329898 39:-0.24298994 40:-0.74742004 41:0.093302936 42:-0.66886656 43:0.10336755 44:-0.60454174 45:-0.39140574 46:-0.50738585 47:-0.83780085 48:-1.213345 49:-0.65482933 50:-0.6183881 51:-0.73981781 52:-1.1905932 53:-0.093942759 54:-0.8697409 55:-1.1120316 56:-0.70836732 57:-0.58999595 58:-0.32371612 59:1.1906028 60:-0.61900456 61:-0.47548827 62:0.025974012 63:-0.712874 64:-0.17697943 65:-0.53589794 66:-0.52448066 67:-0.5356386 68:-0.22063886 
-0 0 0 0.006668137987586423 0 0 1:-0.59266579 2:-0.479391 3:-0.090682591 4:-0.61047715 5:-0.10931454 6:-0.53101407 7:-0.081598096 8:-0.69097099 9:-0.69267857 10:0.49723649 11:1.2586657 12:-0.56331231 13:0.3664272 14:1.1107158 15:0.55221233 16:0.20380503 17:0.60263102 18:-0.17906022 19:-0.20519832 20:0.95119321 21:-0.1231798 22:-0.010437977 23:-0.3089428 24:-0.13607397 25:-0.36144124 26:-0.32468767 27:-0.11527278 28:-0.0013980149 29:0.46851641 30:2.0453364 31:-0.29347007 32:0.88795665 33:2.7864752 34:2.0530409 35:-0.088844861 36:0.19227743 37:-0.015514444 38:0.15908711 39:0.29022161 40:-0.2965361 41:-0.23770087 42:-0.48386607 43:0.16653324 44:-0.34084959 45:-0.82948168 46:-0.58112968 47:-0.16588234 48:-0.72375725 49:-0.57183181 50:-0.83283692 51:-1.0170712 52:-0.74141739 53:-1.2751683 54:0.28214387 55:-0.92224042 56:-0.12550673 57:-0.29085426 58:-0.30899154 59:-0.30921377 60:-0.084160445 61:-0.13285417 62:0.64578235 63:0.77740322 64:2.6776825 65:-0.3531775 66:1.4692933 67:2.0809504 68:1.4901045 
-0 0.003399932232227397 0 0 0 0.02164303858607515 1:-0.70987757 2:-0.51271326 3:-0.29375542 4:-0.31738328 5:0.30971355 6:-0.45673066 7:0.79254252 8:-0.43195075 9:-1.8498723 10:-0.24645046 11:0.36538816 12:0.91514846 13:-0.14189611 14:0.76651328 15:0.51230862 16:-0.35621726 17:-0.37804892 18:-0.56412489 19:0.36704848 20:0.2054401 21:-0.50366742 22:-0.67997588 23:-0.56567476 24:0.38560176 25:-0.62687008 26:-0.56723778 27:-0.4935234 28:-0.39729825 29:1.2674015 30:0.074647529 31:-0.40853993 32:0.25030444 33:-0.54265358 34:-0.1766182 35:-0.21574756 36:0.50115798 37:0.21259437 38:-0.21335097 39:0.3514008 40:-0.11177195 41:1.3889321 42:0.024104832 43:1.1479685 44:1.5857629 45:0.091732737 46:-0.73200322 47:-0.20103794 48:0.71519644 49:-0.33529338 50:-0.20760666 51:-0.14562511 52:-0.043022381 53:-0.96019082 54:-0.25286044 55:-0.31657458 56:-0.70455114 57:-0.40521919 58:0.071021917 59:-0.55671844 60:-0.45949488 61:-0.37577769 62:-0.14545057 63:1.7486222 64:-0.085196164 65:-0.0090559507 66:0.48850716 67:-0.53575961 68:-0.2732989 
-0.08351239547573401 0.08558293864404498 0 0 0 0 1:-0.74288195 2:-0.2971067 3:-1.3218901 4:-0.69857122 5:-0.43892645 6:-0.59823054 7:-0.37668123 8:-0.72160182 9:0.16874104 10:0.33578904 11:-0.043319827 12:0.4128181 13:1.1504492 14:0.24940703 15:-0.50340489 16:-1.0549791 17:0.5836572 18:0.35739769 19:0.90073104 20:0.19030243 21:1.7017805 22:0.77717986 23:-0.64968539 24:0.67922815 25:1.1991425 26:-0.30811213 27:-0.45950038 28:1.1943686 29:-0.55979659 30:-0.12691757 31:-0.16980362 32:0.26550132 33:-0.30070272 34:-0.19476443 35:-0.50402457 36:0.6876918 37:0.83188183 38:-0.45022438 39:-0.13219026 40:-0.67342872 41:-0.27566989 42:-0.48350472 43:0.3898348 44:-0.21449882 45:-0.42430521 46:-0.68607377 47:0.40035802 48:0.99455633 49:-1.6931051 50:-1.1227951 51:-0.68448729 52:-0.80600914 53:0.70394552 54:-0.13626971 55:0.32265339 56:0.76274965 57:-0.56756854 58:-0.0088354667 59:0.7380938 60:-0.36539113 61:-0.46140379 62:0.051942222 63:-0.56394498 64:-0.18442701 65:-0.36927817 66:-0.34851352 67:-0.41487395 68:-0.63972217 
-0 -0.100185292440686 0 0.03180303888323741 0 0 1:-0.78485039 2:-0.61077671 3:-0.48847489 4:-0.77373562 5:0.61641007 6:-0.70644283 7:0.97138214 8:-0.68045285 9:-0.27347413 10:0.79382847 11:0.29328184 12:0.82426709 13:0.076237002 14:1.0545025 15:-0.47409944 16:0.22431458 17:-0.0054743588 18:-0.41272138 19:-0.16825066 20:-0.53710168 21:-0.028597379 22:-0.037137627 23:-0.29936171 24:1.1318088 25:-0.27122244 26:0.096306428 27:0.027859918 28:-0.036145212 29:1.0950354 30:0.15503321 31:-0.11925281 32:0.32997608 33:0.63293891 34:0.23696724 35:-0.53992827 36:-0.39987914 37:0.19816256 38:0.61060766 39:0.69387039 40:-0.76778812 41:1.9088883 42:-0.35276088 43:0.54055362 44:1.0741259 45:1.1134315 46:-0.28217782 47:-0.6132135 48:0.24207935 49:-0.53958937 50:0.11529572 51:0.049104174 52:0.064853031 53:0.34366194 54:-0.07329847 55:1.2802836 56:-0.4035492 57:-0.11526564 58:0.8403308 59:-0.3538149 60:0.080269505 61:0.2938196 62:0.042727038 63:0.72433042 64:-0.013768367 65:0.1945354 66:0.2530783 67:0.014447691 68:-0.33472365 
-0 -0 0.009222383995335429 0 0 0 1:-0.55997346 2:-0.85646032 3:-1.1243587 4:0.025014493 5:1.4949378 6:-0.59229756 7:0.90039117 8:-0.55586729 9:-1.1353788 10:0.5892232 11:0.18642379 12:0.29124765 13:-0.32068602 14:1.0664508 15:-0.20409163 16:-0.22622018 17:0.20623863 18:-0.64247841 19:0.072162205 20:-0.321101 21:-0.061610517 22:0.0087177321 23:-0.024345287 24:0.061469741 25:-0.31671834 26:-0.31885087 27:-0.035312427 28:0.12749216 29:0.86670694 30:-0.11030488 31:0.17882514 32:0.19621129 33:0.14711486 34:-0.15866516 35:-0.097005642 36:-0.79078748 37:1.9934474 38:2.0075573 39:2.1049799 40:-0.10507496 41:2.1772852 42:0.20561361 43:2.173442 44:0.89535575 45:2.0485609 46:2.4083022 47:0.70079115 48:2.9389706 49:1.3221872 50:0.36085288 51:1.2265599 52:1.3595102 53:1.6695774 54:1.4982545 55:-0.02413119 56:0.11733565 57:0.32689778 58:-0.082045384 59:0.023210192 60:-0.075742953 61:0.091038964 62:0.25341473 63:2.3393613 64:0.14581436 65:0.8916461 66:1.3647006 67:0.30774769 68:0.14358276 
-0 -0 0 0.007816799141481139 0 0 1:-0.69383994 2:-0.690937 3:0.30069621 4:-0.6409646 5:0.86093435 6:-0.64674087 7:-0.23382482 8:-0.60350035 9:0.096857179 10:0.73401479 11:0.43597039 12:0.17667804 13:0.02118418 14:0.86089254 15:0.48330052 16:0.19254239 17:0.31403114 18:0.030564434 19:0.42547145 20:-0.14373215 21:-0.49591943 22:-0.45103988 23:0.52669867 24:0.45812098 25:0.53673652 26:1.2484324 27:2.4054911 28:0.86887065 29:0.99105645 30:1.9808108 31:0.56134214 32:0.076679989 33:-0.44786789 34:0.20569957 35:-0.51066126 36:-0.64869332 37:-0.1311929 38:-0.42415283 39:-0.22324741 40:-0.74210105 41:-0.33500856 42:-0.44311135 43:-0.28786893 44:0.51929827 45:0.42134456 46:1.1945384 47:-0.15063622 48:-0.52921023 49:-0.84911452 50:-0.40347293 51:-0.23720402 52:-0.3158494 53:-0.94890204 54:0.19537076 55:0.050486327 56:-0.33227311 57:0.078348422 58:0.14605153 59:0.59899615 60:1.308774 61:2.2593994 62:0.36860336 63:0.54705405 64:1.3919547 65:0.41325487 66:-0.076436946 67:-0.37518488 68:0.11788746 
-0 -0.0531087085839157 0 0.01071238420025965 0.006107634421651425 0 1:-0.68234719 2:-0.61000704 3:0.26054721 4:-0.67862745 5:0.90814314 6:-0.68971134 7:-0.34874406 8:-0.61810125 9:0.22372791 10:0.92130463 11:0.43523689 12:0.6339473 13:-0.32800186 14:0.76971146 15:-0.10280676 16:0.14674314 17:-0.18245345 18:-0.6035836 19:-0.11516072 20:-0.48576725 21:-0.30888701 22:-0.098678077 23:1.1764369 24:0.36597992 25:0.36799055 26:0.073539985 27:0.231344 28:0.13690991 29:0.55617244 30:0.14320161 31:0.53142023 32:0.94958393 33:2.6169082 34:1.7505413 35:-0.45779186 36:-0.41405038 37:-0.03182873 38:0.099006232 39:0.26833656 40:-0.77935912 41:-0.41369494 42:-0.47071038 43:-0.014417821 44:-0.10302771 45:0.41558275 46:1.2355438 47:0.82062111 48:-0.28698381 49:-0.49726193 50:-0.49074308 51:0.25949252 52:0.39797495 53:-0.11765422 54:1.3530856 55:-0.1046002 56:-0.26144542 57:0.64158324 58:-0.093871227 59:0.77487347 60:0.021291083 61:-0.010644662 62:0.055118087 63:0.29194645 64:0.24586553 65:0.34897186 66:1.5074088 67:2.4354429 68:1.9899836 
-0 -0 0.004974717707828423 0 0 0 1:-0.51598419 2:-0.75164172 3:-0.24501448 4:-0.092062567 5:1.3269723 6:-0.52448715 7:-0.16388615 8:-0.53087077 9:-0.29817036 10:0.51419517 11:0.76019549 12:0.20456311 13:-0.95637773 14:0.76083483 15:-0.27677797 16:0.28637074 17:-0.38616064 18:-0.018882782 19:0.085659135 20:0.34017984 21:-0.67218032 22:0.33497266 23:0.11293515 24:1.2313129 25:-0.3307454 26:-0.26282024 27:0.070789503 28:0.44465858 29:0.54406274 30:-0.11471104 31:0.16147443 32:0.74207831 33:0.53522929 34:0.25338522 35:0.061130863 36:-0.65019665 37:0.13557005 38:1.4507529 39:1.7445757 40:-0.49495182 41:0.17846871 42:-0.039193111 43:1.3512882 44:-0.53351925 45:1.0427761 46:2.188523 47:2.342714 48:1.3248084 49:0.5932946 50:-0.66068338 51:0.25418215 52:-0.28945287 53:1.0931636 54:-0.13720104 55:-0.0068622778 56:0.62691734 57:-0.067914882 58:0.78733077 59:-0.31109621 60:-0.48684243 61:0.028194095 62:0.63367011 63:0.94850069 64:-0.030664651 65:0.12607046 66:0.46343222 67:0.31870384 68:-0.20478227 
-0 -0.01071368388816178 0 0 0 0 1:-0.41463797 2:-0.89348712 3:-1.0401172 4:0.074002573 5:0.86170811 6:0.05764494 7:0.40063489 8:-0.031124303 9:-1.4149436 10:0.22087343 11:0.23127752 12:-0.21472681 13:-0.44453363 14:0.12212323 15:-0.44617478 16:0.74023748 17:-0.38169395 18:0.38492774 19:0.17231612 20:0.095807506 21:-0.2701741 22:-0.43676622 23:-0.20197178 24:-0.47012602 25:-0.032491037 26:-0.2479592 27:-0.1062546 28:7.5498508 29:-0.5257075 30:-0.27278029 31:-0.25715363 32:-0.19772112 33:-0.36589556 34:1.9027733 35:-0.3129456 36:-0.88269417 37:2.3891106 38:2.0188349 39:3.1451176 40:2.1797384 41:1.5861442 42:1.9830665 43:2.9867104 44:-0.1343816 45:1.92598 46:2.5494607 47:2.8355241 48:1.2194466 49:0.11152273 50:0.89322343 51:4.046632 52:1.3462495 53:1.0432378 54:0.2644183 55:0.82832632 56:-0.38177583 57:-0.04686679 58:-0.49172525 59:-0.12656968 60:-0.074144416 61:-0.16300123 62:13.871719 63:-0.60219011 64:-0.2202304 65:-0.20032979 66:-0.091178964 67:-0.2324811 68:7.1522233 
-0 -0 0 0 0 0.0003027451138450993 1:-0.45474689 2:-0.88830431 3:-0.082579947 4:0.50690686 5:2.6434076 6:-0.60676469 7:0.08889776 8:-0.63717947 9:-1.8421532 10:0.44876167 11:0.73415294 12:0.29438368 13:-0.53362463 14:0.13554538 15:-0.18351335 16:0.035589659 17:-0.29799201 18:-0.10204375 19:0.3616298 20:0.30562042 21:0.07562683 22:-0.38773241 23:-0.44647975 24:0.79621132 25:-0.38511048 26:-0.41309346 27:0.29197327 28:0.24809178 29:0.96863864 30:0.33210532 31:-0.27962286 32:0.71536078 33:-0.37754237 34:-0.11641807 35:-0.29280536 36:-0.86994404 37:0.18055695 38:1.934218 39:1.5871805 40:-0.5400988 41:-0.13387686 42:0.1172554 43:1.0224399 44:1.360971 45:1.4992976 46:1.8392127 47:1.3000351 48:1.9286994 49:0.45651401 50:0.075343008 51:-0.217006 52:-0.54103531 53:-0.21975387 54:-0.48201734 55:-0.072206729 56:-0.47945715 57:-0.28678546 58:0.6184321 59:-0.12999623 60:-0.30563271 61:0.7562836 62:1.0190357 63:1.8732893 64:0.92110853 65:-0.43452475 66:0.92947671 67:-0.22435833 68:-0.0093607221 
-0 -0.01293865079942077 0 0 0 0 1:-0.5339264 2:-0.84738601 3:-0.27660747 4:0.42217943 5:2.3288814 6:-0.53714687 7:0.27355309 8:-0.61230059 9:-1.3806158 10:0.48859535 11:0.26785185 12:0.40116997 13:0.66551017 14:1.2380033 15:0.38004134 16:0.62114179 17:0.31047092 18:0.0083663567 19:0.79711162 20:0.25347912 21:0.11203153 22:-0.20754283 23:-0.45415385 24:0.19293539 25:0.12424825 26:0.066952279 27:0.091132946 28:-0.15809303 29:1.9771288 30:-0.27681135 31:-0.15371006 32:-0.14036403 33:-0.45491845 34:-0.106756 35:-0.14185563 36:-0.79933186 37:0.77788374 38:1.449545 39:2.0815887 40:0.01170688 41:0.80065376 42:0.16218861 43:1.4162372 44:-0.26938608 45:2.3404914 46:0.10902121 47:-0.52234926 48:0.91069768 49:-0.06815801 50:-0.16570809 51:0.64863681 52:0.24609074 53:0.53367308 54:1.6905242 55:1.2309853 56:0.028764712 57:-0.33247029 58:0.45110562 59:0.8997853 60:0.21262123 61:0.061501715 62:0.092019678 63:3.4769597 64:-0.15884674 65:0.16268652 66:0.29253048 67:-0.36372916 68:-0.013661182 
-0.07205883408666128 -0.01798629410760747 0 0 0.01444328219773043 0.003742135837634932 1:-0.52978794 2:-0.73183315 3:-0.2227714 4:-0.92063993 5:-0.52571844 6:-0.54269497 7:-0.56566405 8:-0.39892227 9:0.46422349 10:0.91507908 11:-0.17272464 12:-0.73468828 13:-0.8404956 14:1.1637688 15:-0.66039928 16:-0.55353007 17:-0.40807855 18:0.41011353 19:0.21682809 20:0.47831976 21:0.9191455 22:0.1984023 23:0.11744111 24:0.048585478 25:-0.020558191 26:-0.15401905 27:-0.046367712 28:0.11076005 29:0.32120482 30:-0.091499283 31:0.47813123 32:-0.052264792 33:-0.37836116 34:-0.578376 35:-0.36168457 36:-0.77631398 37:0.016805118 38:-0.37266073 39:-0.026276623 40:-0.5312271 41:-0.48981304 42:-0.40994054 43:-0.2579167 44:-0.19372402 45:-0.2471669 46:-0.22345442 47:-0.15134466 48:-1.0163773 49:-0.12455908 50:-0.13636277 51:-0.0082042 52:1.0493052 53:-0.60314902 54:-0.9335491 55:-0.77695316 56:-0.072234563 57:0.24035252 58:-0.026523743 59:0.78686716 60:-0.31339772 61:-0.052161346 62:-0.2947668 63:0.28667705 64:-0.074478239 65:-0.010002148 66:-0.40231203 67:-0.3515985 68:-0.55141232 
-0.02816728934225034 -0 0 0.007860004899126839 0.0178763536639276 0.007937168585169201 1:-0.62254723 2:-0.73433881 3:-0.52184463 4:-1.2337212 5:-0.76617421 6:-0.64801279 7:-0.48731369 8:-0.45384108 9:0.44276929 10:1.0193146 11:-0.29963782 12:-0.82130071 13:-0.46431998 14:0.51473257 15:-0.64749341 16:0.10170491 17:-1.0148945 18:-0.16263594 19:0.055929679 20:-0.19778042 21:-0.46782359 22:-0.37192102 23:0.51364489 24:0.059142752 25:-0.015713532 26:-0.11072727 27:0.11517614 28:-0.082019846 29:0.5010908 30:-0.26763049 31:1.1568707 32:-0.35087402 33:-0.42263465 34:-0.62061545 35:-0.36334805 36:-0.74229684 37:0.10095629 38:-0.67854603 39:-0.48658892 40:-0.61274766 41:-0.49554573 42:-0.51308814 43:-0.64168495 44:-0.89976084 45:0.1339546 46:0.7149721 47:-1.0607914 48:-0.24335086 49:-1.0514932 50:0.26194409 51:-0.62843742 52:-0.24262377 53:-0.44765237 54:1.0851768 55:0.26800609 56:-0.56064379 57:-0.0074879649 58:0.10778516 59:-0.30091042 60:-0.26904485 61:-0.25723242 62:-0.27427209 63:0.38448667 64:-0.36440983 65:1.361484 66:-0.6733786 67:-0.4635365 68:-0.56952925 
-0.002150889250377267 -0 0.009423125236272374 0 0 0 1:-0.52845296 2:-0.75991705 3:-1.0655231 4:-0.93142962 5:-0.11736633 6:-0.59925938 7:-0.4694649 8:-0.39202984 9:0.42596304 10:0.79932092 11:-0.0083063951 12:-0.17143474 13:-1.1566614 14:1.1352273 15:-0.044817105 16:0.36419303 17:-0.32113711 18:-0.023741287 19:0.32131112 20:-0.46624756 21:-0.39102346 22:-0.072473741 23:1.5138025 24:0.3584862 25:0.055382097 26:-0.26760002 27:-0.096567428 28:0.11716912 29:0.054869978 30:-0.032002579 31:0.76770391 32:-0.040842703 33:-0.25649815 34:-0.5207982 35:-0.36262728 36:-0.68647179 37:0.14860248 38:-0.45196909 39:-0.13105307 40:-0.65780822 41:-0.28900052 42:-0.27888773 43:-0.07178767 44:-0.98744772 45:-0.53601378 46:-0.36629105 47:1.6497223 48:1.0756929 49:-0.80917049 50:-0.19412725 51:0.2743798 52:-0.39814077 53:-0.60405342 54:0.067534642 55:1.152806 56:-0.27934676 57:0.77344712 58:0.96409277 59:-0.0096471014 60:-0.13997157 61:-0.12669656 62:0.1446817 63:0.74940147 64:-0.16241548 65:0.89379331 66:-0.60840841 67:-0.31842069 68:-0.39936684 
-0.007691265227539308 -0 0.01179364762817659 0 0 0.01540294944320438 1:-0.54603027 2:-0.79170494 3:-0.41571478 4:-1.2619154 5:-1.1584148 6:-0.59817961 7:-0.46537219 8:-0.36556295 9:0.37803462 10:0.84745213 11:-0.082874157 12:-1.3824225 13:-0.55726063 14:0.910839 15:-0.9201359 16:-0.94517908 17:-0.48417243 18:-0.20626014 19:0.88746051 20:-0.22756518 21:-0.21585939 22:-0.1368907 23:-0.044834502 24:-0.41687307 25:-0.46898277 26:-0.22089601 27:-0.25474685 28:-0.14877524 29:0.15235381 30:-0.14949424 31:0.39293244 32:-0.23535951 33:-0.40452464 34:-0.75108623 35:-0.53328947 36:-0.79120441 37:0.93022827 38:-0.93976814 39:-0.8887781 40:-0.64094417 41:-0.56224734 42:-0.34076703 43:-0.70598516 44:-0.35412525 45:0.10837792 46:0.60602059 47:-0.51026045 48:-0.0092707292 49:0.052088414 50:-0.38673236 51:-0.45845681 52:-0.29671929 53:0.31391573 54:0.49785858 55:2.5234488 56:-0.32416276 57:-0.060128296 58:-0.28134006 59:-0.55040748 60:-0.54105362 61:-0.26127274 62:-0.26617148 63:0.064856303 64:-0.31951528 65:0.31755835 66:0.059738263 67:-0.47138201 68:-0.60943815 
-0.1020400648909198 -0.09780768463565695 0.04294676723454088 0.04829784924576986 0.02856419117997576 0.03080289232567777 1:-0.53285841 2:-0.63544688 3:-1.0226211 4:-0.93970054 5:-1.16728 6:-0.28919666 7:-0.58110876 8:-0.34301095 9:0.74467886 10:0.38890444 11:0.55693846 12:-0.88276174 13:-0.97490312 14:-0.34844996 15:0.23097262 16:0.5159285 17:-0.16461852 18:-0.00023044271 19:-0.03530266 20:0.23281898 21:-0.15850084 22:-0.096062672 23:0.49164973 24:0.504422 25:-0.28925297 26:-0.19735782 27:-0.25328034 28:-0.23240849 29:0.59888346 30:0.19025815 31:0.16178558 32:-0.044982727 33:-0.37804097 34:-0.5130375 35:-0.27116241 36:-0.54693216 37:0.20655238 38:-0.56538429 39:-0.5392722 40:0.037065381 41:-0.36072313 42:0.32177379 43:-0.86075371 44:-0.60980214 45:-1.0498186 46:0.13155606 47:-0.31038137 48:-0.042677373 49:0.86471756 50:-0.0061310831 51:-0.090766181 52:-0.22395208 53:0.07653808 54:0.44796388 55:-0.8339177 56:-0.24411789 57:0.87200488 58:-0.019977329 59:-0.41844284 60:-0.25930892 61:-0.1642048 62:-0.33122474 63:0.52706629 64:-0.10580125 65:0.0026820254 66:-0.34053977 67:-0.41969968 68:-0.46592171 
-0 -0 0.005876567530414178 0 0 0 1:-0.30258814 2:-0.86208137 3:-2.0156444 4:-0.24734564 5:1.0489374 6:-0.54773745 7:0.10144147 8:-0.53314987 9:-1.3911975 10:0.83701001 11:-0.13520323 12:-0.62352159 13:-0.67644911 14:-0.092367325 15:-0.50754468 16:-0.48136618 17:-0.36045577 18:-0.016141449 19:-0.19835366 20:-0.3301022 21:0.21552061 22:-0.25849957 23:-0.23389112 24:-0.0023854403 25:-0.34193711 26:-0.29724328 27:-0.29893343 28:0.58949566 29:0.66339948 30:0.20977898 31:-0.20145335 32:0.076846479 33:-0.31912118 34:-0.37511483 35:0.44103815 36:-0.77742324 37:2.4928703 38:2.4061374 39:2.8151553 40:0.31298586 41:0.95760824 42:0.28800157 43:2.4773937 44:2.2441045 45:1.5426525 46:2.929983 47:0.87550703 48:-0.54400501 49:1.8586623 50:1.3432588 51:0.4672222 52:1.4984062 53:2.0751811 54:1.9629823 55:0.57322099 56:-0.084996272 57:-0.15424403 58:0.35959559 59:-0.29704931 60:-0.077748617 61:-0.38261423 62:1.23105 63:1.2164477 64:0.2379082 65:0.13573222 66:0.63241077 67:-0.240676 68:0.39770867 
-0 -0.03611537676768045 0 0 0 0 1:-0.40106067 2:-0.82169485 3:-1.4730523 4:-0.0018183323 5:1.6165609 6:-0.6615851 7:0.11972713 8:-0.6698955 9:-1.5587313 10:1.2102874 11:0.72048584 12:0.071316578 13:-0.38878846 14:-0.081099704 15:-1.09795 16:-0.5088085 17:0.086937575 18:-0.69612307 19:-0.028625263 20:-0.089647201 21:0.34381869 22:-0.14969708 23:-0.02492232 24:-0.26322155 25:-0.16059369 26:-0.3091767 27:0.05771965 28:-0.18041292 29:1.2930221 30:0.55758429 31:0.22031056 32:0.38887754 33:0.1101846 34:-0.15141694 35:0.25499545 36:-0.70492604 37:2.2180563 38:2.448508 39:1.9527796 40:-0.55264951 41:0.87180777 42:-0.44310104 43:0.88980339 44:2.2849751 45:-1.0168617 46:-0.13246868 47:-0.47440671 48:-0.98270275 49:-0.75891701 50:-0.14322211 51:-0.67287011 52:0.40361563 53:1.3213829 54:0.021362036 55:0.33961289 56:-0.23082115 57:-0.12462918 58:-0.34739475 59:-0.38657546 60:-0.39065566 61:-0.045303065 62:-0.30996346 63:1.3583197 64:0.24853566 65:0.095697363 66:1.2444417 67:0.49985547 68:0.16841124 
-0.02818998029781893 -0 0 0 0 0 1:-0.60961121 2:-0.84833735 3:-1.1998681 4:-0.72550864 5:0.31656022 6:-0.69494765 7:0.17933614 8:-0.61909376 9:-1.3086732 10:0.96255656 11:0.45168913 12:0.35712188 13:-0.65284687 14:0.19899161 15:0.034388584 16:-0.23626384 17:0.085777793 18:-0.91383912 19:-0.4989354 20:-0.70738701 21:0.27062355 22:-0.26096808 23:-0.26364117 24:0.80480124 25:-0.036825626 26:0.069857032 27:-0.16978043 28:-0.22513834 29:0.87532642 30:-0.096435615 31:0.0073598897 32:0.40514981 33:-0.34996148 34:-0.19853905 35:-0.27631522 36:-0.78698316 37:-0.075875226 38:1.421416 39:1.7436714 40:-0.76584715 41:0.46956203 42:-0.222909 43:1.5856693 44:2.1251535 45:0.77741996 46:0.96286966 47:-0.34243986 48:0.91753316 49:0.45843032 50:-0.024267039 51:-0.31760637 52:-0.03637248 53:1.4920754 54:0.5306985 55:-0.24918132 56:-0.31495548 57:-0.23061138 58:0.16653249 59:0.13027675 60:0.092153705 61:0.12219679 62:-0.22092513 63:1.9354368 64:0.16071477 65:0.063906205 66:0.90217457 67:-0.11719618 68:-0.37386752 
-0 -0 0.008086451026552298 0 0 0 1:-0.43432655 2:-0.84834934 3:0.042427902 4:0.50352655 5:2.6107415 6:-0.59837254 7:-0.18750671 8:-0.65886762 9:-1.005428 10:0.84365972 11:0.80708427 12:-0.079083864 13:0.66945789 14:0.45470494 15:0.51105765 16:0.56701577 17:-0.030380555 18:-0.36542671 19:0.32836482 20:0.0017488731 21:0.31349285 22:-0.37947302 23:0.00043820624 24:0.23347479 25:0.80323784 26:0.60908118 27:2.1403642 28:-0.24766101 29:0.26054729 30:-0.079385541 31:3.3372199 32:-0.099809475 33:-0.41963471 34:-0.072580809 35:-0.33941329 36:-0.72477938 37:1.6155272 38:1.8253704 39:1.1960423 40:-0.45706533 41:-0.041536437 42:-0.38478855 43:0.51684158 44:1.351917 45:1.0775832 46:0.071258234 47:-0.38128508 48:0.7110274 49:-0.20956988 50:-0.40645441 51:-0.5360278 52:-0.81722966 53:0.99785874 54:2.0454053 55:2.21173 56:-0.31133222 57:-0.32800674 58:0.28644151 59:2.0714942 60:1.7039836 61:2.2861805 62:-0.13829221 63:0.33185291 64:0.16114863 65:3.1465408 66:-0.51677653 67:-0.36366111 68:-0.123337 
-0 -0.01916583472027957 0 0 0 0 1:-0.66480844 2:-0.55519412 3:-0.52881358 4:-0.42886781 5:1.0438364 6:-0.62602116 7:-0.20236197 8:-0.63759853 9:-0.097938729 10:0.4188243 11:0.78401196 12:1.3569069 13:-0.33326752 14:1.0018156 15:-0.91653576 16:0.13433288 17:-0.24480546 18:-0.065203041 19:0.32113822 20:0.65504159 21:0.3844951 22:-0.25104223 23:-0.22074483 24:0.51403955 25:-0.11080151 26:0.66504535 27:5.3649853 28:0.47553581 29:1.0128203 30:0.57627282 31:0.0065110272 32:0.34366456 33:-0.4210982 34:0.75717641 35:-0.364736 36:-0.23464187 37:0.078027459 38:0.39557181 39:0.6780036 40:-0.4998776 41:-0.066197155 42:0.029356655 43:0.32262426 44:0.13612771 45:0.21423965 46:0.91160844 47:0.93245733 48:-0.36296884 49:-0.10823244 50:-0.084481213 51:-0.94224335 52:-0.38914215 53:-0.95523644 54:-0.49861075 55:0.0059824127 56:-0.41555805 57:-0.36592814 58:0.10009943 59:-0.027362397 60:1.2215307 61:4.4205999 62:0.2608236 63:0.89603325 64:0.37693021 65:-0.10495821 66:-0.17174006 67:-0.41974333 68:0.6012944 
-0 -0 0 0.03065743662861117 0 0 1:-0.67929155 2:-0.53684771 3:-0.445407 4:-0.66340157 5:0.68784538 6:-0.55193308 7:0.039302353 8:-0.42143751 9:0.30839595 10:0.52510898 11:0.56221966 12:0.50696027 13:-0.19643664 14:1.0915974 15:-0.56556832 16:0.46222497 17:-0.33566702 18:0.077362664 19:0.41514312 20:0.89551402 21:0.15499461 22:-0.3712929 23:0.22018604 24:0.72673788 25:0.13505856 26:0.11726111 27:0.16889182 28:0.31265885 29:0.155524 30:0.4207051 31:0.23134695 32:-0.066802387 33:-0.39131739 34:-0.47252295 35:-0.39091122 36:-0.37301474 37:0.57806754 38:-0.28136194 39:-0.019614162 40:-0.19351908 41:0.081058473 42:0.39194467 43:0.15085241 44:0.41511225 45:1.2595227 46:2.0060782 47:1.5950425 48:-0.35881817 49:-0.19510723 50:0.33146255 51:0.19726668 52:0.33621823 53:-0.5858232 54:-0.021555635 55:-0.23431474 56:-0.39766301 57:-0.13382436 58:0.94598655 59:0.3395292 60:0.048324873 61:0.15403672 62:0.70040352 63:0.12541255 64:0.82131789 65:0.32738552 66:-0.20144351 67:-0.36805435 68:-0.18095528 
-0 -0 0.008458222946216126 0 0 0 1:-0.33554746 2:-0.83026207 3:-0.14408053 4:0.25679928 5:2.4534527 6:-0.63386953 7:-0.31275883 8:-0.65427268 9:-0.8272645 10:0.91800593 11:0.96316054 12:0.15854056 13:0.25679284 14:0.62618654 15:-0.2277244 16:0.51177371 17:-0.34297335 18:-0.71577096 19:-0.38227164 20:0.29338235 21:-0.015455775 22:-0.044331838 23:0.92523272 24:0.13255677 25:0.67661498 26:0.37026825 27:0.56254205 28:-0.23483979 29:0.34729005 30:0.05522674 31:1.9541033 32:0.69446712 33:3.4467953 34:2.4946802 35:-0.11237168 36:-0.72075807 37:2.0218149 38:1.6404514 39:1.0679897 40:-0.66700336 41:0.11476009 42:-0.48163881 43:0.27582931 44:0.84163908 45:-0.67094552 46:1.988084 47:0.49503064 48:-0.10920953 49:-0.76336357 50:1.8959812 51:2.5708136 52:0.41212055 53:0.43388601 54:-0.96796945 55:0.38493065 56:-0.021027311 57:0.38504774 58:-0.20215678 59:1.1374142 60:0.91447237 61:0.93517788 62:-0.18687649 63:-0.028927261 64:0.22004687 65:1.2557552 66:0.38864516 67:4.2708954 68:3.9650997 
-0.01179730560764782 -0.03291090253934009 0 0 0 0 1:-0.28793296 2:-0.83753782 3:-1.2646819 4:0.038505615 5:-0.041480001 6:0.50407838 7:-0.56235901 8:0.61639567 9:-0.099695745 10:0.25757414 11:0.2909274 12:0.18834569 13:0.017305533 14:0.71985627 15:0.35274776 16:0.28151437 17:-0.72999948 18:-1.0273058 19:0.27907958 20:0.36782527 21:0.011613006 22:0.034393323 23:0.43901098 24:0.18550172 25:0.31700064 26:0.13266706 27:-0.13858991 28:-0.18373867 29:0.18718498 30:-0.25547389 31:0.09759613 32:-0.1193535 33:-0.290464 34:-0.54624087 35:-0.25649312 36:-0.76199614 37:0.78158669 38:0.88940047 39:0.16398452 40:2.8861219 41:-0.37315663 42:3.186168 43:0.84556263 44:-0.020087444 45:0.35803919 46:2.344195 47:1.4980525 48:0.69012869 49:-0.055569634 50:2.007601 51:0.62812142 52:-0.23022485 53:0.28543245 54:0.704081 55:0.71704762 56:0.013316632 57:0.32465412 58:0.26850569 59:-0.023200063 60:0.16251115 61:-0.24822315 62:-0.18332207 63:0.29577848 64:-0.18911593 65:0.3461089 66:0.036425796 67:-0.20996423 68:-0.51729319 
-0 -0.00440145260836531 0 0 0 0 1:-0.44481608 2:-0.87623322 3:-1.2267114 4:-0.51032923 5:0.22027213 6:-0.082889924 7:-0.36232202 8:-0.19940046 9:-0.9201442 10:0.35635113 11:0.51607173 12:-0.040018523 13:0.58199853 14:0.76107956 15:0.49446904 16:0.9676126 17:-0.043903599 18:-0.90307917 19:0.43692615 20:0.21230522 21:-0.37658566 22:1.9194139 23:0.1366406 24:0.27474103 25:0.84174506 26:0.30690242 27:-0.10187119 28:0.0063320108 29:0.39583616 30:-0.10354131 31:-0.14212685 32:-0.26097298 33:-0.2968889 34:-0.18208315 35:-0.27822602 36:-0.83741873 37:1.8796352 38:-0.20946705 39:0.87721065 40:2.8688545 41:-0.30906239 42:1.5315396 43:0.70144109 44:1.3949625 45:0.62808 46:1.7767615 47:1.0932922 48:2.28882 49:-0.47039216 50:0.065402493 51:-0.46091648 52:0.90380804 53:0.24479277 54:-0.57346215 55:0.23292084 56:1.45591 57:0.085500999 58:-0.026377728 59:1.5514498 60:0.82300009 61:-0.18137832 62:-0.11705615 63:-0.010701478 64:-0.067206525 65:0.088054909 66:-0.10090683 67:-0.068510573 68:0.20351531 
-0.03192143957805505 -0.01720015836173823 0 0.03543677379114264 0 0 1:-0.56363169 2:-0.34517504 3:-0.97479451 4:-0.45872779 5:-0.30460624 6:-0.51202546 7:-0.43330125 8:-0.6246082 9:-0.16015659 10:0.56681934 11:0.085679052 12:-0.020460914 13:1.3176848 14:-0.32515538 15:-0.046227076 16:-0.59239185 17:0.62887255 18:-0.66697829 19:0.2948153 20:0.43142068 21:0.55164924 22:3.7785925 23:-0.44044667 24:3.3100117 25:2.5663429 26:1.034959 27:0.98228542 28:0.60529728 29:-0.68805755 30:1.4467988 31:-0.26572936 32:1.7810204 33:1.1956443 34:1.2331688 35:-0.45517091 36:0.22223637 37:1.4064474 38:-0.64135419 39:-0.4884855 40:-0.62514335 41:-0.17348146 42:-0.44813616 43:1.283619 44:-1.1164292 45:-0.97968638 46:-0.24981142 47:-0.88889057 48:0.67776759 49:-0.17649488 50:-0.21623249 51:-0.3435647 52:0.51456066 53:-0.55730207 54:-0.65152848 55:0.58242686 56:3.3774407 57:-0.50617414 58:2.4012841 59:2.9990057 60:0.76210864 61:0.35731173 62:0.48587917 63:-0.74947393 64:1.347541 65:-0.42745092 66:1.3023626 67:0.94246445 68:0.4946388 
-0.08914206652071849 -0.1725619277543333 0 0.01499353586314673 0.04761515379411507 0 1:-0.21507406 2:-0.85756913 3:-0.26242258 4:0.10805169 5:0.063079153 6:-0.11868804 7:-0.64857705 8:-0.1768004 9:-0.90333386 10:0.11751616 11:-0.15410719 12:0.15246623 13:0.91880709 14:0.74846749 15:0.53536964 16:-0.074881264 17:0.21703598 18:-0.34425953 19:0.57313299 20:0.9059327 21:0.38334743 22:1.2289249 23:-0.31091767 24:0.78770741 25:0.67874917 26:1.1786429 27:0.10577128 28:0.93688331 29:-0.66410127 30:1.4138968 31:-0.41412083 32:0.31027932 33:0.23204561 34:0.47880355 35:-0.38886187 36:-0.79266342 37:0.76718981 38:-0.43993321 39:-0.29650694 40:-0.22814395 41:-0.62207398 42:0.13916648 43:0.82217141 44:0.045985053 45:-0.6822305 46:-1.0888505 47:0.088419861 48:-1.1095879 49:-0.59801036 50:-1.2204879 51:-0.95740637 52:-0.71180603 53:-1.1406902 54:-1.0681694 55:0.68674011 56:0.56126206 57:-0.36715145 58:0.61990868 59:0.52671685 60:3.1259603 61:0.010766706 62:0.620348 63:-0.7810146 64:1.6460964 65:-0.50786799 66:-0.14859481 67:-0.097534961 68:0.6635707 
-0.1490917700859603 -0 0.00161797804242896 0 0.009871460381868421 0.02107763900750664 1:0.59567594 2:-0.65547042 3:-0.68923364 4:0.30322726 5:0.045889834 6:0.41004417 7:-0.76222066 8:0.10530238 9:0.94793978 10:0.31490357 11:-0.31296263 12:-0.39212414 13:0.33078318 14:-0.16503193 15:0.227395 16:-0.42099485 17:0.46298366 18:0.44038469 19:0.52430212 20:1.0559903 21:0.99681573 22:-0.02624478 23:-0.088534979 24:-0.001299064 25:0.053967336 26:0.79905452 27:-0.076415333 28:-0.14355467 29:-0.62143122 30:-0.029360828 31:0.050483367 32:-0.22059908 33:0.028091498 34:-0.31106432 35:0.1227941 36:-0.31197817 37:1.7684447 38:-0.17508888 39:-0.57478681 40:0.31124299 41:-0.71690011 42:0.25013467 43:0.17118187 44:-0.56669831 45:-0.42055818 46:0.66781656 47:0.19051626 48:-0.30928025 49:-0.012462343 50:-0.65858291 51:-0.16139145 52:0.79292814 53:-0.41713462 54:-0.038081877 55:0.38536177 56:0.17546803 57:-0.37613961 58:0.3350001 59:-0.0030438453 60:0.51848268 61:-0.29744443 62:0.008912081 63:-0.7102948 64:-0.11367948 65:-0.2490611 66:-0.407996 67:0.15258645 68:-0.20901445 
-0 -0 0 0.01112486296500712 0 0 1:-0.3311182 2:-0.30831319 3:-1.4575817 4:-0.73878438 5:-0.63724658 6:-0.47651329 7:-0.54741867 8:-0.46439752 9:0.53620607 10:0.79875598 11:0.061435063 12:0.30177512 13:-0.13709191 14:-0.90918353 15:-0.22667549 16:-1.1328266 17:0.88772422 18:0.098880303 19:-0.15160767 20:0.028157082 21:0.59482799 22:1.8635281 23:-0.15002957 24:1.2127286 25:1.5914411 26:0.89643857 27:0.31249651 28:0.53636952 29:-0.66967032 30:0.7982228 31:0.031254504 32:1.1612544 33:0.6521452 34:0.46960111 35:-0.099900401 36:0.25580871 37:2.2289051 38:0.1677854 39:-0.064954119 40:0.42490306 41:-0.32199399 42:0.039396006 43:0.097622377 44:0.45152108 45:-0.3327646 46:-0.10908411 47:-0.19333892 48:-0.84127293 49:0.99865213 50:1.7569877 51:0.17314354 52:1.130346 53:0.091037693 54:1.7816765 55:0.64881545 56:1.2683633 57:-0.1303483 58:0.98598705 59:2.0892423 60:0.94830583 61:-0.013247845 62:0.50019608 63:-0.63022753 64:0.76792788 65:-0.0023686305 66:1.1350724 67:0.31344036 68:0.17445901 
-0 -0.01170715489663251 0 0.007670014194138628 0 0 1:-0.19842857 2:-0.70347954 3:-0.23877671 4:-0.40259082 5:-0.47742097 6:-0.27394279 7:-0.62575103 8:-0.34143106 9:0.048354791 10:0.55771882 11:0.077021313 12:0.27779438 13:0.68865699 14:-0.24598072 15:-0.45144993 16:-0.94877572 17:0.61819511 18:-0.11346852 19:0.4024428 20:0.29734862 21:0.55988597 22:1.6086742 23:0.0080801099 24:0.83493962 25:0.6002073 26:1.1655472 27:0.23587115 28:0.50572322 29:-0.64081897 30:0.51979189 31:-0.08991959 32:0.84568016 33:0.51866329 34:0.34289049 35:-0.088918294 36:-0.30131534 37:1.1123412 38:0.5745109 39:-0.11304107 40:0.64101655 41:-0.55679521 42:-0.18017689 43:0.33383572 44:-0.23232321 45:-0.65707205 46:-0.43311172 47:-0.41782415 48:-0.058383967 49:1.73699 50:2.3991664 51:0.24118107 52:1.0402178 53:-0.31522664 54:0.16471855 55:0.53491629 56:1.255515 57:-0.1707697 58:0.82799366 59:0.68971859 60:1.326973 61:0.072945707 62:0.2416344 63:-0.68786199 64:0.76799639 65:-0.20173333 66:0.79210048 67:0.144064 68:-0.17774398 
-0 -0 -0 0 0 0.006286503263695561 1:0.12138008 2:1.6754582 3:0.11912101 4:-0.053737662 5:-0.5678677 6:-0.23307509 7:0.70173873 8:0.020894764 9:1.4234787 10:1.0674015 11:-0.038524811 12:-2.4081213 13:-1.3335917 14:0.23340893 15:-0.3056259 16:1.3553788 17:0.200843 18:-0.62549612 19:-0.87473961 20:-0.41403209 21:0.40073674 22:0.62555528 23:1.8340442 24:-0.61889332 25:-0.58684795 26:-0.59106883 27:-0.5482198 28:-0.55146529 29:-0.64265215 30:-0.51200019 31:-0.49453365 32:-0.74047606 33:-0.37701644 34:-0.46152084 35:-0.23395918 36:2.3627571 37:-0.14679211 38:-0.39971872 39:-0.36503304 40:0.16746262 41:0.42735626 42:-0.31361407 43:-0.90489192 44:-0.035981772 45:0.14169143 46:0.80098866 47:2.1053388 48:1.8002951 49:2.412765 50:2.9782327 51:0.45391213 52:1.11694 53:0.1530649 54:-0.18238937 55:-0.60486641 56:1.4832761 57:1.9473165 58:-0.4173099 59:-0.63766638 60:-0.62356473 61:-0.49677855 62:-0.44414703 63:-0.54881017 64:-0.44568775 65:-0.49918746 66:-0.70449901 67:-0.12134809 68:-0.36992624 
-0.02248978157499289 -0.005532839433355417 -0.03347903232135534 0.003124604111637844 0 0 1:1.2180869 2:-0.50360683 3:-1.5781712 4:0.19646761 5:0.14938515 6:-0.35167177 7:0.33026012 8:0.072927271 9:0.060079106 10:1.3468212 11:0.55937622 12:-2.8682049 13:-0.3587111 14:0.11771859 15:0.49567007 16:-0.59623468 17:-0.7657436 18:0.21692281 19:-0.86068147 20:-0.68146062 21:0.073458437 22:-0.10484118 23:0.72826518 24:-0.47542175 25:-0.34939209 26:0.077604014 27:-0.15526649 28:-0.35645809 29:0.096720751 30:-0.27967205 31:0.25979924 32:-0.58694967 33:-0.463695 34:-0.54061163 35:3.4026038 36:-0.077643402 37:0.47507771 38:0.46139142 39:0.15622907 40:-0.2871989 41:0.21711287 42:-0.34911912 43:-0.30003824 44:-0.69135393 45:1.1842723 46:0.75867869 47:1.1508897 48:0.081012085 49:0.77234989 50:0.85409508 51:0.7744474 52:0.28836045 53:1.60778 54:0.54457224 55:0.95886566 56:-0.042755793 57:0.49800048 58:-0.24251466 59:-0.21264906 60:-0.1708555 61:-0.28797684 62:-0.26442149 63:0.49209868 64:-0.29033202 65:0.32081118 66:-0.60392214 67:-0.39349582 68:-0.68091062 
-0.007885947879326383 -0 -0 0 0 0 1:0.34261793 2:0.20864166 3:0.48184247 4:0.72162765 5:1.2718001 6:-0.11716862 7:0.035841087 8:-0.018311973 9:0.85935247 10:1.179124 11:0.43757314 12:-0.38223619 13:0.49105442 14:0.55969868 15:0.37503691 16:-1.4518338 17:-0.89358849 18:1.1480722 19:-0.4740314 20:0.65134915 21:0.67245089 22:-0.057975885 23:4.8877681 24:0.25092016 25:0.24325353 26:-0.5479631 27:-0.44011271 28:-0.51673566 29:-0.56970981 30:0.16760288 31:1.3044571 32:-0.35469722 33:-0.38519053 34:-0.29239402 35:1.9454092 36:0.66926215 37:-0.57341986 38:1.4479625 39:0.87466337 40:0.10530484 41:-0.2813789 42:-0.13440224 43:-0.89935542 44:-0.70817786 45:1.1703862 46:-0.55123062 47:2.1795316 48:-0.70159488 49:0.45720822 50:-0.40217137 51:-0.013947379 52:-0.51649114 53:-0.16835803 54:-0.34459499 55:-0.83655604 56:-0.058603284 57:2.9871221 58:0.20704999 59:0.055576214 60:-0.57530163 61:-0.33787669 62:-0.43499565 63:-0.47233749 64:0.86433042 65:2.8114259 66:-0.0751868 67:-0.29973171 68:-0.29701217 
-0.003741315983088812 -0.03349732909378186 -0.02488070043976962 0.01012790821824976 0.01057063995312266 0 1:0.34292461 2:0.11468045 3:0.050188067 4:0.65479377 5:1.5258752 6:-0.39356724 7:0.12062386 8:-0.16723679 9:0.66642769 10:1.270633 11:1.1520496 12:-0.68450628 13:-0.86613573 14:-0.3457421 15:-0.57512177 16:-0.37500164 17:-0.50044973 18:0.92982942 19:1.0301818 20:-0.5671084 21:-0.25555616 22:-0.17675043 23:1.8411846 24:-0.34021895 25:-0.47662078 26:-0.20814512 27:-0.31022138 28:-0.51370512 29:-0.32313568 30:0.25547587 31:3.8705768 32:0.80207862 33:-0.26968218 34:-0.074962101 35:1.2458483 36:0.62722506 37:0.073575555 38:0.74886773 39:0.17329498 40:-0.14175469 41:0.22983998 42:-0.46462561 43:-0.62418779 44:-0.52553845 45:0.41722311 46:0.11294722 47:-0.58782987 48:-0.30466185 49:0.72967311 50:-0.37863931 51:-0.46282793 52:-0.58630121 53:0.94365152 54:-0.12490172 55:-0.075704844 56:0.23643832 57:3.3594838 58:-0.054950971 59:-0.41463911 60:-0.18280396 61:-0.13141939 62:-0.42475926 63:0.34577336 64:0.47019923 65:2.6738603 66:0.72712044 67:-0.26130189 68:-0.19377078 
-0 -0.004780788839319533 -0 0 0 0 1:0.37960336 2:-0.27033336 3:0.27052285 4:1.0883733 5:1.1505316 6:0.063717269 7:0.07468461 8:0.54871673 9:0.67589735 10:0.96466435 11:0.28303424 12:-1.0977869 13:0.35011306 14:1.5284632 15:0.32870695 16:-1.2484254 17:-0.80880599 18:0.58053769 19:0.02599764 20:1.1850069 21:-0.022493163 22:2.6857201 23:6.2244033 24:-0.438466 25:-0.16171846 26:-0.35001289 27:-0.23660693 28:-0.39459966 29:-0.48277088 30:-0.16967127 31:0.34551046 32:0.072503946 33:0.8542493 34:0.8348939 35:1.7432274 36:0.040042004 37:0.047222782 38:2.1608904 39:0.82271077 40:1.4538998 41:-0.026954021 42:4.6605839 43:-0.21022633 44:-0.34115787 45:1.5016861 46:-0.29549426 47:0.82842573 48:2.109617 49:0.14078688 50:2.0889291 51:0.26009266 52:0.13664771 53:0.4836327 54:-0.21871285 55:0.29207185 56:4.9255781 57:7.6314493 58:-0.12552974 59:-0.13038818 60:-0.43328497 61:-0.24259394 62:-0.28407614 63:-0.47675264 64:-0.26504756 65:0.3425917 66:0.45671488 67:1.7612834 68:1.9420798 
-0 -0 -0.0005781133591979232 0 0 0 1:0.0077727399 2:-0.1831843 3:0.20795892 4:0.1248793 5:0.18815462 6:-0.030817408 7:-0.26791576 8:0.11210699 9:0.91493186 10:1.1161686 11:0.1906007 12:-1.5347514 13:0.29510332 14:0.16064614 15:0.26048162 16:0.2370002 17:-0.86734573 18:0.19585015 19:1.0251252 20:0.55718594 21:-0.2638548 22:0.20951309 23:8.29852 24:-0.12831887 25:-0.098230294 26:-0.50072022 27:-0.21804812 28:-0.54328495 29:-0.63150678 30:-0.28623498 31:0.14782219 32:0.85379872 33:-0.27693915 34:0.011678246 35:-0.16436551 36:0.11186936 37:-0.080530043 38:-0.59565706 39:-0.19113409 40:0.22009438 41:-0.12638255 42:0.12082561 43:-0.19806331 44:-1.2365075 45:2.1279438 46:0.25406171 47:1.6805026 48:4.0905818 49:1.0271929 50:0.52458085 51:-1.1624277 52:-0.11630603 53:-0.018065001 54:1.060046 55:0.81080962 56:0.66197892 57:7.8515921 58:0.084040355 59:0.19153222 60:-0.46455816 61:-0.31916857 62:-0.45688686 63:-0.51030342 64:0.25568635 65:1.1950219 66:1.4144207 67:-0.017772371 68:-0.18358442 
-0.01955358754519563 -0.01367600103355875 -0.01619646579984775 0.008672472359372949 0.00725146643415417 0.01639860148150168 1:-0.024046856 2:-0.23829649 3:0.018020628 4:-0.016227082 5:0.13195017 6:-0.13358464 7:-0.25909517 8:0.0034948753 9:0.75394851 10:1.3211277 11:-0.14967418 12:-1.4030885 13:0.31167829 14:-0.76518982 15:1.0385408 16:0.44534124 17:-0.97051674 18:0.23581072 19:0.37993957 20:-0.19464277 21:-0.21113292 22:-0.58787488 23:0.95042715 24:-0.77939366 25:-0.31797979 26:-0.36534402 27:-0.41783309 28:-0.51055404 29:-0.40941463 30:2.2110242 31:3.0931772 32:-0.1892914 33:-0.1290128 34:0.0064775141 35:-0.20464844 36:-0.21352416 37:-0.66101661 38:-0.58158259 39:-0.37517372 40:-0.13563068 41:-0.19009079 42:-0.11098174 43:-0.71802399 44:-1.1481069 45:0.80910675 46:-0.51361139 47:1.5322443 48:2.9372959 49:0.81008405 50:0.19350472 51:-0.030120633 52:1.0814581 53:0.80495024 54:-0.36415053 55:-1.0664003 56:-0.67707785 57:0.27875777 58:-0.67920204 59:-0.53902266 60:-0.2221105 61:-0.44953251 62:-0.42450909 63:-0.24971295 64:2.4716994 65:2.4183785 66:-0.30167456 67:-0.14301388 68:0.29821096 
-0.01956615981216096 -0 -0.00183529101650008 0.008026960615483201 0.01003995172189936 0.01455336422649805 1:0.70026638 2:2.4517004 3:-1.3258974 4:0.5700544 5:0.14654694 6:-0.041770946 7:-0.37599378 8:0.21328131 9:2.0455626 10:0.79495703 11:-0.031402431 12:-2.4031304 13:-2.4645571 14:0.81292368 15:0.84853304 16:-0.56472239 17:-0.86808627 18:-0.58650754 19:0.18249484 20:-0.38746688 21:0.010980797 22:-0.68664326 23:-0.20582954 24:-0.2847425 25:-0.087717888 26:-0.44180528 27:-0.39043726 28:-0.38203257 29:-0.59423143 30:-0.58743762 31:-0.20879668 32:-0.68308581 33:-0.51242644 34:-0.78135283 35:2.7206007 36:1.8348203 37:0.10229633 38:0.06577029 39:0.082217928 40:-0.12297432 41:-0.26820153 42:-0.53721503 43:-0.98839635 44:-0.70762292 45:-0.26698813 46:-0.3288564 47:0.49564423 48:0.93369005 49:1.1065734 50:0.41874883 51:-1.1436609 52:1.4001691 53:-0.73823767 54:-0.086488039 55:-0.098176645 56:-0.64380148 57:-0.2135839 58:-0.39754032 59:0.24345362 60:-0.40122888 61:-0.33447784 62:-0.15873844 63:-0.62160694 64:-0.58530563 65:-0.40437411 66:-0.74682676 67:-0.49886181 68:-0.75348157 
-0.009243833824216055 -0 -0 0.01868167120491327 0.008695359313674097 0.01880847049806 1:0.2793563 2:0.59563789 3:-0.33179141 4:-0.1952144 5:-0.46309407 6:-0.51298843 7:0.3675975 8:0.0098317781 9:0.85618939 10:1.33131 11:0.087136311 12:-2.7238578 13:-2.4280931 14:-0.13421879 15:0.73300291 16:0.30343601 17:-0.56727382 18:1.3065378 19:-1.6972299 20:-0.44103796 21:0.55099166 22:0.8663377 23:1.6530205 24:-0.78733246 25:-0.41424651 26:-0.60921673 27:-0.54147456 28:-0.47473925 29:-0.63966696 30:-0.57682511 31:-0.44830831 32:-0.65932224 33:-0.42440939 34:-0.41804014 35:1.1859867 36:0.75142055 37:0.0021730652 38:-0.77244575 39:-0.56601632 40:-0.63226434 41:0.056969985 42:-0.39994932 43:-0.52035363 44:-0.55788812 45:0.99812455 46:-0.030286491 47:1.2555922 48:0.39655478 49:0.39342729 50:0.31644175 51:1.0363196 52:0.20375284 53:0.65872019 54:0.70728033 55:0.7607322 56:0.62586561 57:2.3674538 58:-0.62793399 59:-0.29870638 60:-0.62473395 61:-0.48256198 62:-0.317844 63:-0.64835971 64:-0.56643866 65:-0.41839556 66:-0.51480979 67:-0.3927904 68:-0.38584853 
-0.01392624501962407 -0.01579281283147696 -0.02543025841109453 0.01994972131441079 0.01106896961900448 0.02553361290488827 1:-0.16358556 2:0.97841402 3:0.8984992 4:-0.29885478 5:-0.20666269 6:-0.57660535 7:1.0344349 8:-0.066332628 9:0.63788345 10:1.526766 11:0.13409789 12:-1.2531041 13:-0.8025331 14:-0.51472539 15:0.031515259 16:1.2412708 17:-0.14582735 18:-0.30751952 19:-0.30113701 20:-1.7354989 21:-0.94383545 22:-0.099601716 23:-0.35214422 24:-0.95748823 25:-0.62465213 26:-0.6458913 27:-0.58112219 28:0.10229374 29:-0.76139999 30:-0.60841379 31:-0.55383604 32:-0.72376549 33:1.3600031 34:0.71128543 35:-0.005987795 36:1.5777879 37:-0.62363044 38:1.0347088 39:1.0745138 40:-0.55238785 41:0.14120449 42:-0.29729086 43:-0.38142621 44:1.1541692 45:-0.069669799 46:-0.036753461 47:0.56282844 48:1.4274965 49:1.4992525 50:1.0978919 51:0.82419089 52:1.4346098 53:2.1964948 54:1.0244358 55:0.46418327 56:0.31900508 57:-0.091557084 58:-0.82510942 59:-0.59895887 60:-0.69710116 61:-0.53535404 62:0.23053965 63:-0.84775243 64:-0.58443114 65:-0.5414569 66:-0.76720296 67:1.2758016 68:0.93814921 
-0 -0.009984941214876558 -0 0 0 0.0009079257563518905 1:3.1305093 2:-0.06473965 3:-0.25426487 4:2.0020134 5:0.57444419 6:0.60829279 7:0.16277936 8:1.3411588 9:0.38590049 10:0.88722027 11:0.11714646 12:-3.0759206 13:-0.33716972 14:0.57702003 15:0.52515869 16:0.24651721 17:-0.88753741 18:0.29355229 19:-0.73365807 20:-1.1121961 21:0.7488853 22:-0.67626458 23:-0.37982366 24:-0.51982308 25:-0.67277333 26:-0.62600843 27:0.056644754 28:-0.54615512 29:-0.75333498 30:-0.60670715 31:-0.50851933 32:0.56146215 33:-0.33017051 34:-0.37370763 35:6.140689 36:0.6039681 37:1.4060781 38:3.6678641 39:0.15888813 40:5.1256159 41:-0.24399102 42:7.6281534 43:0.58751223 44:1.5371705 45:1.8214704 46:0.5824915 47:2.1708315 48:1.6010023 49:0.11183925 50:0.094196875 51:0.15445217 52:0.5775977 53:0.99039843 54:0.96723984 55:-0.28838845 56:-0.59336356 57:-0.24071331 58:-0.13568862 59:-0.62110994 60:-0.67097315 61:0.29878741 62:-0.42571158 63:-0.83676715 64:-0.59739305 65:-0.42113363 66:1.5225602 67:-0.092992283 68:0.14651482 
-0 -0 -0 0 0 0.001353400406740005 1:3.0135217 2:0.24285809 3:-2.4283623 4:1.7922372 5:1.1057816 6:0.73173651 7:-0.047954545 8:2.3675244 9:0.88565927 10:0.97068282 11:0.55784261 12:-2.5567139 13:-1.7395237 14:-0.64530308 15:0.08470346 16:0.60897186 17:-0.46611229 18:-0.2252154 19:-0.028814563 20:0.4951189 21:1.0959925 22:-0.55186968 23:1.0508637 24:-0.07173121 25:-0.22257774 26:-0.51397135 27:-0.51551387 28:-0.24669529 29:-0.5593847 30:-0.26563925 31:-0.0052454001 32:-0.68570342 33:-0.5388256 34:-0.7457248 35:3.5282657 36:0.40634017 37:-0.30278729 38:0.97764105 39:0.1827854 40:1.3867879 41:-0.07616541 42:3.8437718 43:-0.67133345 44:-0.45936718 45:2.3009087 46:-0.56550581 47:0.13371454 48:2.4309471 49:-0.080869557 50:-0.72897914 51:-0.081755267 52:0.93987839 53:-0.0337324 54:-1.1360316 55:0.35647843 56:-0.65160722 57:0.46790158 58:-0.20870265 59:-0.39976604 60:-0.60496112 61:-0.52584931 62:-0.094223228 63:-0.67278482 64:-0.31536915 65:0.2529861 66:-0.72470421 67:-0.56802807 68:-0.74439223 
-0.00146914695133159 -0 -0 -0 0 0 1:2.5556925 2:-0.01453553 3:1.1694112 4:1.56733 5:-0.91343395 6:3.8406563 7:-0.82619409 8:2.8191752 9:0.88928445 10:-0.8921458 11:-0.27350168 12:-1.7213952 13:-1.5665849 14:-1.7655038 15:-0.5330475 16:0.2272154 17:2.6423502 18:0.25041731 19:-1.3481677 20:-2.6961306 21:-0.36958041 22:-0.69178629 23:-0.6105426 24:-0.95798046 25:-0.71463613 26:-0.63924754 27:-0.55502431 28:-0.58502031 29:-0.76342163 30:-0.60913758 31:-0.44974253 32:-0.79424761 33:-0.54546225 34:-0.99187463 35:0.52159338 36:-0.42637501 37:-0.88843727 38:-0.6320978 39:-0.99093871 40:-0.19200169 41:-0.80379963 42:-0.078281302 43:-0.48076271 44:-0.64705353 45:-0.054471381 46:-0.36076168 47:-0.38501206 48:-0.52467972 49:-0.74040766 50:1.0196671 51:2.0451681 52:0.53643019 53:1.9015431 54:0.14378126 55:1.5847508 56:-0.63723726 57:-0.52629924 58:-0.83855699 59:-0.76046043 60:-0.69020628 61:-0.5305192 62:-0.51278835 63:-0.84771177 64:-0.60061356 65:-0.39228469 66:-0.84922151 67:-0.54476604 68:-0.83276962 
-0 -0 -0 -0 0 0.01916745949001305 1:2.2275253 2:0.32188694 3:1.2700894 4:1.3249974 5:-0.82265153 6:3.482808 7:-0.85718603 8:2.7021348 9:1.5654984 10:-1.0299113 11:-1.0538919 12:-1.5772645 13:-1.2673729 14:-0.7593586 15:0.065188427 16:-0.90378195 17:0.930449 18:0.40164292 19:-0.60371569 20:-0.79779146 21:-2.0500354 22:-0.77137562 23:-0.48023066 24:-0.95818539 25:-0.72467861 26:-0.61817504 27:-0.56067645 28:-0.57739383 29:-0.74931898 30:-0.57646402 31:-0.22677452 32:-0.78709458 33:-0.55737333 34:-0.98857355 35:-0.27409253 36:-0.5205142 37:-1.0685336 38:-0.91979339 39:-1.0441188 40:-0.49482447 41:-0.83570454 42:-0.48616535 43:-1.1615384 44:-1.3768656 45:-0.85699634 46:-0.76151062 47:-0.96741113 48:-0.76830412 49:-1.1142605 50:-0.63722165 51:-1.0388143 52:-0.63929655 53:-0.85578082 54:-1.2224235 55:-0.51403298 56:-0.78406791 57:-0.42687534 58:-0.8447105 59:-0.7678995 60:-0.6724586 61:-0.53402145 62:-0.5000398 63:-0.83396827 64:-0.58815356 65:-0.20425641 66:-0.83637878 67:-0.57629476 68:-0.84556861 
